<?xml version="1.0"?>
<opencv_storage>
<stage6>
  <maxWeakCount>64</maxWeakCount>
  <stageThreshold>-3.4393554925918579e-01</stageThreshold>
  <weakClassifiers>
    <_>
      <internalNodes>
        0 -1 571642 -4.9627672880887985e-02</internalNodes>
      <leafValues>
        -8.6111110448837280e-01 3.5275518894195557e-01</leafValues></_>
    <_>
      <internalNodes>
        0 -1 2985837 7.5135519728064537e-04</internalNodes>
      <leafValues>
        -6.4112529158592224e-02 3.4298223257064819e-01</leafValues></_>
    <_>
      <internalNodes>
        0 -1 1233 -4.4434383511543274e-02</internalNodes>
      <leafValues>
        -3.9765542745590210e-01 6.7166097462177277e-02</leafValues></_>
    <_>
      <internalNodes>
        0 -1 262287 -6.8438041489571333e-04</internalNodes>
      <leafValues>
        -3.1589007377624512e-01 7.8907005488872528e-02</leafValues></_>
    <_>
      <internalNodes>
        0 -1 2315486 -1.9327632617205381e-04</internalNodes>
      <leafValues>
        2.5681418180465698e-01 -1.0537591576576233e-01</leafValues></_>
    <_>
      <internalNodes>
        0 -1 678748 -6.3872095779515803e-05</internalNodes>
      <leafValues>
        -2.5791564583778381e-01 9.9188029766082764e-02</leafValues></_>
    <_>
      <internalNodes>
        0 -1 2998389 -2.9389109840849414e-05</internalNodes>
      <leafValues>
        1.6135652363300323e-01 -1.8944595754146576e-01</leafValues></_>
    <_>
      <internalNodes>
        0 -1 2427623 2.2175777121447027e-04</internalNodes>
      <leafValues>
        -8.4120094776153564e-02 2.8027066588401794e-01</leafValues></_>
    <_>
      <internalNodes>
        0 -1 1840024 2.0330891013145447e-02</internalNodes>
      <leafValues>
        5.1421035081148148e-02 -5.8045154809951782e-01</leafValues></_>
    <_>
      <internalNodes>
        0 -1 318001 -5.2800616685999557e-05</internalNodes>
      <leafValues>
        -2.3307095468044281e-01 1.0932600498199463e-01</leafValues></_>
    <_>
      <internalNodes>
        0 -1 2998843 -3.0649872496724129e-03</internalNodes>
      <leafValues>
        3.4967485070228577e-01 -8.6875461041927338e-02</leafValues></_>
    <_>
      <internalNodes>
        0 -1 586584 -5.2708614384755492e-04</internalNodes>
      <leafValues>
        -4.6082833409309387e-01 6.4102791249752045e-02</leafValues></_>
    <_>
      <internalNodes>
        0 -1 57523 -1.7006401903927326e-03</internalNodes>
      <leafValues>
        -4.0635719895362854e-01 6.0068853199481964e-02</leafValues></_>
    <_>
      <internalNodes>
        0 -1 31222 1.5674730530008674e-03</internalNodes>
      <leafValues>
        -7.5530126690864563e-02 3.2320198416709900e-01</leafValues></_>
    <_>
      <internalNodes>
        0 -1 2826177 -1.8348416779190302e-04</internalNodes>
      <leafValues>
        1.6224507987499237e-01 -1.6585287451744080e-01</leafValues></_>
    <_>
      <internalNodes>
        0 -1 2901217 -5.3015653975307941e-04</internalNodes>
      <leafValues>
        2.2727574408054352e-01 -1.2271548807621002e-01</leafValues></_>
    <_>
      <internalNodes>
        0 -1 3005415 2.4895387014112202e-06</internalNodes>
      <leafValues>
        1.5338025987148285e-01 -1.8487715721130371e-01</leafValues></_>
    <_>
      <internalNodes>
        0 -1 1368301 -1.3901524944230914e-03</internalNodes>
      <leafValues>
        -4.2204251885414124e-01 7.4236974120140076e-02</leafValues></_>
    <_>
      <internalNodes>
        0 -1 50596 -4.0747812017798424e-03</internalNodes>
      <leafValues>
        -5.0052690505981445e-01 5.4616890847682953e-02</leafValues></_>
    <_>
      <internalNodes>
        0 -1 79410 -2.3377276957035065e-03</internalNodes>
      <leafValues>
        5.4549217224121094e-01 -5.8137897402048111e-02</leafValues></_>
    <_>
      <internalNodes>
        0 -1 3013929 -1.0374774225056171e-02</internalNodes>
      <leafValues>
        9.7971513867378235e-02 -3.2678291201591492e-01</leafValues></_>
    <_>
      <internalNodes>
        0 -1 1456035 6.9846268743276596e-03</internalNodes>
      <leafValues>
        1.2019450217485428e-01 -2.6993456482887268e-01</leafValues></_>
    <_>
      <internalNodes>
        0 -1 42938 -4.3163012014701962e-04</internalNodes>
      <leafValues>
        -6.9837056100368500e-02 4.9978274106979370e-01</leafValues></_>
    <_>
      <internalNodes>
        0 -1 2926613 -2.3938939557410777e-04</internalNodes>
      <leafValues>
        4.0565049648284912e-01 -6.9189310073852539e-02</leafValues></_>
    <_>
      <internalNodes>
        0 -1 2905110 -2.3181503365776734e-06</internalNodes>
      <leafValues>
        -1.7613667249679565e-01 1.6453629732131958e-01</leafValues></_>
    <_>
      <internalNodes>
        0 -1 2923115 -1.0233621287625283e-04</internalNodes>
      <leafValues>
        3.0006590485572815e-01 -9.8965577781200409e-02</leafValues></_>
    <_>
      <internalNodes>
        0 -1 2448511 4.2005779687315226e-04</internalNodes>
      <leafValues>
        -1.1916679888963699e-01 2.4280282855033875e-01</leafValues></_>
    <_>
      <internalNodes>
        0 -1 2864184 -3.9883470162749290e-03</internalNodes>
      <leafValues>
        2.3388591408729553e-01 -1.1749695986509323e-01</leafValues></_>
    <_>
      <internalNodes>
        0 -1 3018843 2.3899084771983325e-04</internalNodes>
      <leafValues>
        -1.4767576754093170e-01 2.0043317973613739e-01</leafValues></_>
    <_>
      <internalNodes>
        0 -1 2487815 -1.8074471154250205e-04</internalNodes>
      <leafValues>
        -5.3437995910644531e-01 5.5281706154346466e-02</leafValues></_>
    <_>
      <internalNodes>
        0 -1 2957480 1.3290380593389273e-04</internalNodes>
      <leafValues>
        5.9797566384077072e-02 -4.7992467880249023e-01</leafValues></_>
    <_>
      <internalNodes>
        0 -1 39538 -2.6453793980181217e-03</internalNodes>
      <leafValues>
        -3.0217128992080688e-01 8.7661087512969971e-02</leafValues></_>
    <_>
      <internalNodes>
        0 -1 461509 -8.4144172433298081e-05</internalNodes>
      <leafValues>
        1.8141005933284760e-01 -1.5723992884159088e-01</leafValues></_>
    <_>
      <internalNodes>
        0 -1 1181756 -1.1652098328340799e-04</internalNodes>
      <leafValues>
        -4.4971802830696106e-01 6.4208187162876129e-02</leafValues></_>
    <_>
      <internalNodes>
        0 -1 2471453 1.0099767241626978e-03</internalNodes>
      <leafValues>
        -7.1266204118728638e-02 4.4832494854927063e-01</leafValues></_>
    <_>
      <internalNodes>
        0 -1 2185475 -2.4684485048055649e-02</internalNodes>
      <leafValues>
        -6.0599678754806519e-01 5.5804736912250519e-02</leafValues></_>
    <_>
      <internalNodes>
        0 -1 761644 -2.1260166249703616e-05</internalNodes>
      <leafValues>
        -2.2845417261123657e-01 1.3528972864151001e-01</leafValues></_>
    <_>
      <internalNodes>
        0 -1 2156557 7.3503132443875074e-04</internalNodes>
      <leafValues>
        -1.1880675703287125e-01 2.3251385986804962e-01</leafValues></_>
    <_>
      <internalNodes>
        0 -1 2781804 6.6410761792212725e-04</internalNodes>
      <leafValues>
        -1.0682816058397293e-01 2.6606565713882446e-01</leafValues></_>
    <_>
      <internalNodes>
        0 -1 785824 7.9634875874035060e-05</internalNodes>
      <leafValues>
        -1.5878218412399292e-01 1.7641498148441315e-01</leafValues></_>
    <_>
      <internalNodes>
        0 -1 2643673 4.2583635076880455e-03</internalNodes>
      <leafValues>
        6.9620966911315918e-02 -4.1350319981575012e-01</leafValues></_>
    <_>
      <internalNodes>
        0 -1 1951985 6.8349065259099007e-03</internalNodes>
      <leafValues>
        -1.2710879743099213e-01 2.2887381911277771e-01</leafValues></_>
    <_>
      <internalNodes>
        0 -1 2845069 7.3497439734637737e-04</internalNodes>
      <leafValues>
        -8.8254936039447784e-02 3.0797109007835388e-01</leafValues></_>
    <_>
      <internalNodes>
        0 -1 3011216 1.5017050318419933e-03</internalNodes>
      <leafValues>
        3.3312089741230011e-02 -9.1082727909088135e-01</leafValues></_>
    <_>
      <internalNodes>
        0 -1 1688271 -5.1966821774840355e-04</internalNodes>
      <leafValues>
        2.6338279247283936e-01 -1.0795132070779800e-01</leafValues></_>
    <_>
      <internalNodes>
        0 -1 782518 -8.5392959590535611e-05</internalNodes>
      <leafValues>
        -4.0884765982627869e-01 7.1402750909328461e-02</leafValues></_>
    <_>
      <internalNodes>
        0 -1 2993369 1.5787556185387075e-04</internalNodes>
      <leafValues>
        -1.3259080052375793e-01 2.2194853425025940e-01</leafValues></_>
    <_>
      <internalNodes>
        0 -1 2876570 -8.0975901801139116e-04</internalNodes>
      <leafValues>
        -6.4424043893814087e-01 5.1503349095582962e-02</leafValues></_>
    <_>
      <internalNodes>
        0 -1 182450 2.6894422262557782e-06</internalNodes>
      <leafValues>
        1.6532003879547119e-01 -1.8183092772960663e-01</leafValues></_>
    <_>
      <internalNodes>
        0 -1 1815018 -1.4862088486552238e-02</internalNodes>
      <leafValues>
        4.7090962529182434e-02 -6.9076943397521973e-01</leafValues></_>
    <_>
      <internalNodes>
        0 -1 838253 -3.9553241804242134e-03</internalNodes>
      <leafValues>
        3.7068483233451843e-01 -8.2583948969841003e-02</leafValues></_>
    <_>
      <internalNodes>
        0 -1 2990155 3.9658771129325032e-04</internalNodes>
      <leafValues>
        -9.9771790206432343e-02 3.0392891168594360e-01</leafValues></_>
    <_>
      <internalNodes>
        0 -1 1540039 -3.9851127075962722e-04</internalNodes>
      <leafValues>
        -2.1296405792236328e-01 1.4960342645645142e-01</leafValues></_>
    <_>
      <internalNodes>
        0 -1 103984 4.7970630112104118e-04</internalNodes>
      <leafValues>
        8.8767021894454956e-02 -3.6226698756217957e-01</leafValues></_>
    <_>
      <internalNodes>
        0 -1 2876606 -1.9963068189099431e-04</internalNodes>
      <leafValues>
        -4.0674194693565369e-01 7.3439121246337891e-02</leafValues></_>
    <_>
      <internalNodes>
        0 -1 1610629 1.4982017455622554e-04</internalNodes>
      <leafValues>
        -1.1957199126482010e-01 2.5102338194847107e-01</leafValues></_>
    <_>
      <internalNodes>
        0 -1 3003970 -3.0821518157608807e-04</internalNodes>
      <leafValues>
        3.6188548803329468e-01 -8.0178722739219666e-02</leafValues></_>
    <_>
      <internalNodes>
        0 -1 204542 -9.5872778911143541e-04</internalNodes>
      <leafValues>
        -4.7214445471763611e-01 6.5044909715652466e-02</leafValues></_>
    <_>
      <internalNodes>
        0 -1 2787519 1.3869047164916992e-01</internalNodes>
      <leafValues>
        -4.3176904320716858e-02 6.9499570131301880e-01</leafValues></_>
    <_>
      <internalNodes>
        0 -1 2825778 6.1441014986485243e-04</internalNodes>
      <leafValues>
        1.3937270641326904e-01 -2.4631659686565399e-01</leafValues></_>
    <_>
      <internalNodes>
        0 -1 2926207 1.1867120862007141e-02</internalNodes>
      <leafValues>
        -6.0229882597923279e-02 4.6160510182380676e-01</leafValues></_>
    <_>
      <internalNodes>
        0 -1 2982878 -2.5034087229869328e-05</internalNodes>
      <leafValues>
        1.7647118866443634e-01 -1.6977716982364655e-01</leafValues></_>
    <_>
      <internalNodes>
        0 -1 1990297 -9.8368339240550995e-04</internalNodes>
      <leafValues>
        4.0065109729766846e-01 -8.0764561891555786e-02</leafValues></_>
    <_>
      <internalNodes>
        0 -1 2996085 -2.9591613565571606e-04</internalNodes>
      <leafValues>
        -2.5024032592773438e-01 1.3585525751113892e-01</leafValues></_></weakClassifiers></stage6>
</opencv_storage>
