<?xml version="1.0"?>
<opencv_storage>
<stage1>
  <maxWeakCount>51</maxWeakCount>
  <stageThreshold>-4.2836099863052368e-01</stageThreshold>
  <weakClassifiers>
    <_>
      <internalNodes>
        0 -1 388272 -1.6602516174316406e-02</internalNodes>
      <leafValues>
        4.7679045796394348e-01 4.1778974235057831e-02</leafValues></_>
    <_>
      <internalNodes>
        0 -1 1826775 -1.5482937917113304e-02</internalNodes>
      <leafValues>
        3.0175611376762390e-01 -1.3289740681648254e-01</leafValues></_>
    <_>
      <internalNodes>
        0 -1 2092713 4.1820546612143517e-03</internalNodes>
      <leafValues>
        -9.1363266110420227e-02 4.0089586377143860e-01</leafValues></_>
    <_>
      <internalNodes>
        0 -1 2256169 1.2918590800836682e-04</internalNodes>
      <leafValues>
        -1.1651867628097534e-01 2.9753306508064270e-01</leafValues></_>
    <_>
      <internalNodes>
        0 -1 2062500 -2.0692456746473908e-04</internalNodes>
      <leafValues>
        2.8303131461143494e-01 -1.2124386429786682e-01</leafValues></_>
    <_>
      <internalNodes>
        0 -1 2487908 -1.3882037819712423e-05</internalNodes>
      <leafValues>
        1.6503258049488068e-01 -1.8927375972270966e-01</leafValues></_>
    <_>
      <internalNodes>
        0 -1 3021521 -1.4896853826940060e-03</internalNodes>
      <leafValues>
        -4.2820316553115845e-01 6.9264151155948639e-02</leafValues></_>
    <_>
      <internalNodes>
        0 -1 2464553 2.0853675901889801e-02</internalNodes>
      <leafValues>
        -1.3931699097156525e-01 2.1416141092777252e-01</leafValues></_>
    <_>
      <internalNodes>
        0 -1 2993257 -8.9901662431657314e-04</internalNodes>
      <leafValues>
        -8.3396717905998230e-02 4.3801653385162354e-01</leafValues></_>
    <_>
      <internalNodes>
        0 -1 3003800 -7.0315797347575426e-04</internalNodes>
      <leafValues>
        1.6129872202873230e-01 -2.5101086497306824e-01</leafValues></_>
    <_>
      <internalNodes>
        0 -1 2856517 -5.2556738955900073e-04</internalNodes>
      <leafValues>
        -5.9000059962272644e-02 5.2997100353240967e-01</leafValues></_>
    <_>
      <internalNodes>
        0 -1 2305640 4.1562149999663234e-04</internalNodes>
      <leafValues>
        -6.6138744354248047e-02 4.2964890599250793e-01</leafValues></_>
    <_>
      <internalNodes>
        0 -1 2916403 5.1140310242772102e-03</internalNodes>
      <leafValues>
        9.9343135952949524e-02 -3.5322487354278564e-01</leafValues></_>
    <_>
      <internalNodes>
        0 -1 2894547 -1.2088849325664341e-04</internalNodes>
      <leafValues>
        -2.7255704998970032e-01 1.2868852913379669e-01</leafValues></_>
    <_>
      <internalNodes>
        0 -1 2139516 9.7214628476649523e-04</internalNodes>
      <leafValues>
        -1.1818328499794006e-01 2.9195910692214966e-01</leafValues></_>
    <_>
      <internalNodes>
        0 -1 2914702 2.0426121773198247e-04</internalNodes>
      <leafValues>
        1.2929449975490570e-01 -2.5769689679145813e-01</leafValues></_>
    <_>
      <internalNodes>
        0 -1 2363568 -1.4531878696288913e-04</internalNodes>
      <leafValues>
        3.6428803205490112e-01 -9.0060204267501831e-02</leafValues></_>
    <_>
      <internalNodes>
        0 -1 2817605 -2.6588691980578005e-04</internalNodes>
      <leafValues>
        -4.8340681195259094e-01 7.0733703672885895e-02</leafValues></_>
    <_>
      <internalNodes>
        0 -1 2982878 -2.7833977947011590e-04</internalNodes>
      <leafValues>
        2.9169094562530518e-01 -1.2276764214038849e-01</leafValues></_>
    <_>
      <internalNodes>
        0 -1 2889221 -4.8212205001618713e-05</internalNodes>
      <leafValues>
        -3.1568968296051025e-01 1.0849824547767639e-01</leafValues></_>
    <_>
      <internalNodes>
        0 -1 2200814 -4.6161032514646649e-04</internalNodes>
      <leafValues>
        4.4848808646202087e-01 -7.0625707507133484e-02</leafValues></_>
    <_>
      <internalNodes>
        0 -1 2262634 1.3473366561811417e-04</internalNodes>
      <leafValues>
        -1.0082300752401352e-01 3.7944737076759338e-01</leafValues></_>
    <_>
      <internalNodes>
        0 -1 593935 2.5292960926890373e-03</internalNodes>
      <leafValues>
        8.3235517144203186e-02 -4.3128013610839844e-01</leafValues></_>
    <_>
      <internalNodes>
        0 -1 461469 4.1517693898640573e-04</internalNodes>
      <leafValues>
        5.2476368844509125e-02 -6.0812062025070190e-01</leafValues></_>
    <_>
      <internalNodes>
        0 -1 437577 4.3132691644132137e-03</internalNodes>
      <leafValues>
        -6.3170716166496277e-02 5.5449771881103516e-01</leafValues></_>
    <_>
      <internalNodes>
        0 -1 887289 1.6324028372764587e-02</internalNodes>
      <leafValues>
        6.9642022252082825e-02 -6.0622644424438477e-01</leafValues></_>
    <_>
      <internalNodes>
        0 -1 2741494 2.6606172323226929e-02</internalNodes>
      <leafValues>
        -6.6274426877498627e-02 6.2407785654067993e-01</leafValues></_>
    <_>
      <internalNodes>
        0 -1 118850 2.7746278792619705e-03</internalNodes>
      <leafValues>
        -6.9789409637451172e-02 4.6587952971458435e-01</leafValues></_>
    <_>
      <internalNodes>
        0 -1 220561 -8.0217458307743073e-03</internalNodes>
      <leafValues>
        -3.4815865755081177e-01 1.0518832504749298e-01</leafValues></_>
    <_>
      <internalNodes>
        0 -1 2039121 -9.1704241931438446e-03</internalNodes>
      <leafValues>
        4.0052056312561035e-02 -7.6888221502304077e-01</leafValues></_>
    <_>
      <internalNodes>
        0 -1 1108364 -1.4998301863670349e-02</internalNodes>
      <leafValues>
        3.0270165205001831e-01 -1.2766370177268982e-01</leafValues></_>
    <_>
      <internalNodes>
        0 -1 2416402 6.6756387241184711e-04</internalNodes>
      <leafValues>
        -1.2660738825798035e-01 2.8815683722496033e-01</leafValues></_>
    <_>
      <internalNodes>
        0 -1 110277 3.7803696468472481e-03</internalNodes>
      <leafValues>
        9.9372908473014832e-02 -3.4929314255714417e-01</leafValues></_>
    <_>
      <internalNodes>
        0 -1 3002323 -4.3890147935599089e-04</internalNodes>
      <leafValues>
        -4.1809791326522827e-01 7.9872794449329376e-02</leafValues></_>
    <_>
      <internalNodes>
        0 -1 3002323 3.2370802364312112e-04</internalNodes>
      <leafValues>
        1.1006619781255722e-01 -3.5203060507774353e-01</leafValues></_>
    <_>
      <internalNodes>
        0 -1 2535094 8.5824518464505672e-05</internalNodes>
      <leafValues>
        -1.1596297472715378e-01 3.1841000914573669e-01</leafValues></_>
    <_>
      <internalNodes>
        0 -1 2322065 1.9530928693711758e-04</internalNodes>
      <leafValues>
        -9.5177501440048218e-02 3.6010617017745972e-01</leafValues></_>
    <_>
      <internalNodes>
        0 -1 2994043 5.7977493270300329e-05</internalNodes>
      <leafValues>
        -1.7629408836364746e-01 1.9067813456058502e-01</leafValues></_>
    <_>
      <internalNodes>
        0 -1 3004171 6.3877092907205224e-04</internalNodes>
      <leafValues>
        7.4633002281188965e-02 -4.6850937604904175e-01</leafValues></_>
    <_>
      <internalNodes>
        0 -1 1623288 -3.4298705868422985e-03</internalNodes>
      <leafValues>
        6.3271051645278931e-01 -5.7676039636135101e-02</leafValues></_>
    <_>
      <internalNodes>
        0 -1 346228 -2.5896655643009581e-05</internalNodes>
      <leafValues>
        -1.9632484018802643e-01 1.6796849668025970e-01</leafValues></_>
    <_>
      <internalNodes>
        0 -1 2309525 -2.7779627591371536e-02</internalNodes>
      <leafValues>
        -7.7210390567779541e-01 4.1067659854888916e-02</leafValues></_>
    <_>
      <internalNodes>
        0 -1 693106 1.4805345563217998e-04</internalNodes>
      <leafValues>
        4.5647367835044861e-02 -6.2696123123168945e-01</leafValues></_>
    <_>
      <internalNodes>
        0 -1 2970909 7.7974435407668352e-04</internalNodes>
      <leafValues>
        -6.4613446593284607e-02 5.9139215946197510e-01</leafValues></_>
    <_>
      <internalNodes>
        0 -1 2658306 3.1016583670862019e-04</internalNodes>
      <leafValues>
        -1.5952228009700775e-01 2.0582295954227448e-01</leafValues></_>
    <_>
      <internalNodes>
        0 -1 2001415 -4.4998858356848359e-04</internalNodes>
      <leafValues>
        3.7728402018547058e-01 -8.9860066771507263e-02</leafValues></_>
    <_>
      <internalNodes>
        0 -1 2069589 3.0817452352494001e-04</internalNodes>
      <leafValues>
        -9.6571475267410278e-02 3.5773715376853943e-01</leafValues></_>
    <_>
      <internalNodes>
        0 -1 1285925 -7.1973656304180622e-04</internalNodes>
      <leafValues>
        -7.4870055913925171e-01 5.0678625702857971e-02</leafValues></_>
    <_>
      <internalNodes>
        0 -1 1485525 -7.9769995063543320e-03</internalNodes>
      <leafValues>
        3.7507146596908569e-01 -9.9254734814167023e-02</leafValues></_>
    <_>
      <internalNodes>
        0 -1 1104498 1.1377421906217933e-03</internalNodes>
      <leafValues>
        9.7916096448898315e-02 -3.5380476713180542e-01</leafValues></_>
    <_>
      <internalNodes>
        0 -1 987793 -5.5021308071445674e-05</internalNodes>
      <leafValues>
        -2.5531682372093201e-01 1.3264822959899902e-01</leafValues></_></weakClassifiers></stage1>
</opencv_storage>
