<?xml version="1.0"?>
<opencv_storage>
<stage0>
  <maxWeakCount>41</maxWeakCount>
  <stageThreshold>-5.4718142747879028e-01</stageThreshold>
  <weakClassifiers>
    <_>
      <internalNodes>
        0 -1 1007812 -2.9888870194554329e-02</internalNodes>
      <leafValues>
        4.9100404977798462e-01 -1.8216319382190704e-01</leafValues></_>
    <_>
      <internalNodes>
        0 -1 2124762 2.1702188998460770e-02</internalNodes>
      <leafValues>
        -1.3810765743255615e-01 5.0529336929321289e-01</leafValues></_>
    <_>
      <internalNodes>
        0 -1 1982818 -3.1316380947828293e-02</internalNodes>
      <leafValues>
        -5.3966379165649414e-01 1.2356861680746078e-01</leafValues></_>
    <_>
      <internalNodes>
        0 -1 3022875 -1.1951497290283442e-03</internalNodes>
      <leafValues>
        -4.7624012827873230e-01 9.0670667588710785e-02</leafValues></_>
    <_>
      <internalNodes>
        0 -1 3010007 -1.2388343457132578e-03</internalNodes>
      <leafValues>
        -5.0146120786666870e-01 9.0872377157211304e-02</leafValues></_>
    <_>
      <internalNodes>
        0 -1 121616 -3.5097543150186539e-02</internalNodes>
      <leafValues>
        3.0088007450103760e-01 -1.5201653540134430e-01</leafValues></_>
    <_>
      <internalNodes>
        0 -1 3011022 4.4598913518711925e-04</internalNodes>
      <leafValues>
        8.2113742828369141e-02 -4.8169368505477905e-01</leafValues></_>
    <_>
      <internalNodes>
        0 -1 2900421 5.0362953916192055e-03</internalNodes>
      <leafValues>
        6.2464471906423569e-02 -6.4592742919921875e-01</leafValues></_>
    <_>
      <internalNodes>
        0 -1 2926423 -9.9449642002582550e-03</internalNodes>
      <leafValues>
        5.0634101033210754e-02 -8.2352846860885620e-01</leafValues></_>
    <_>
      <internalNodes>
        0 -1 506586 -1.1374682188034058e-02</internalNodes>
      <leafValues>
        -6.0245215892791748e-01 5.5706378072500229e-02</leafValues></_>
    <_>
      <internalNodes>
        0 -1 2010421 1.6535841859877110e-03</internalNodes>
      <leafValues>
        -1.4815518260002136e-01 3.0075657367706299e-01</leafValues></_>
    <_>
      <internalNodes>
        0 -1 1858674 1.2713186442852020e-03</internalNodes>
      <leafValues>
        8.6581580340862274e-02 -5.9170538187026978e-01</leafValues></_>
    <_>
      <internalNodes>
        0 -1 2945425 -2.2980934008955956e-03</internalNodes>
      <leafValues>
        2.9216617345809937e-01 -1.5798969566822052e-01</leafValues></_>
    <_>
      <internalNodes>
        0 -1 118426 6.3688539739814587e-06</internalNodes>
      <leafValues>
        -2.2575092315673828e-01 1.8749921023845673e-01</leafValues></_>
    <_>
      <internalNodes>
        0 -1 1800051 -3.8165780715644360e-03</internalNodes>
      <leafValues>
        3.9741712808609009e-01 -1.0238358378410339e-01</leafValues></_>
    <_>
      <internalNodes>
        0 -1 322887 -4.6867181663401425e-04</internalNodes>
      <leafValues>
        -6.5121173858642578e-01 6.3241809606552124e-02</leafValues></_>
    <_>
      <internalNodes>
        0 -1 1532301 9.1944559244439006e-05</internalNodes>
      <leafValues>
        -1.5012849867343903e-01 2.8001046180725098e-01</leafValues></_>
    <_>
      <internalNodes>
        0 -1 1682288 -3.1390818185172975e-04</internalNodes>
      <leafValues>
        3.1358125805854797e-01 -1.3286773860454559e-01</leafValues></_>
    <_>
      <internalNodes>
        0 -1 2121565 -1.2320122914388776e-03</internalNodes>
      <leafValues>
        5.4707300662994385e-01 -7.2052851319313049e-02</leafValues></_>
    <_>
      <internalNodes>
        0 -1 3022229 1.3312243390828371e-03</internalNodes>
      <leafValues>
        6.8278677761554718e-02 -6.5829473733901978e-01</leafValues></_>
    <_>
      <internalNodes>
        0 -1 9738 -7.2336690500378609e-03</internalNodes>
      <leafValues>
        -5.9908634424209595e-01 6.2296044081449509e-02</leafValues></_>
    <_>
      <internalNodes>
        0 -1 980147 8.0870062811300159e-04</internalNodes>
      <leafValues>
        -1.1040236800909042e-01 4.1780039668083191e-01</leafValues></_>
    <_>
      <internalNodes>
        0 -1 2903406 -5.3509522695094347e-04</internalNodes>
      <leafValues>
        -2.5202322006225586e-01 1.5250223875045776e-01</leafValues></_>
    <_>
      <internalNodes>
        0 -1 2939580 -6.3368614064529538e-04</internalNodes>
      <leafValues>
        -3.1029662489891052e-01 1.4267326891422272e-01</leafValues></_>
    <_>
      <internalNodes>
        0 -1 1302134 -3.1659645028412342e-03</internalNodes>
      <leafValues>
        3.6734515428543091e-01 -1.1438550800085068e-01</leafValues></_>
    <_>
      <internalNodes>
        0 -1 784425 5.0364958588033915e-04</internalNodes>
      <leafValues>
        7.3425568640232086e-02 -5.9663671255111694e-01</leafValues></_>
    <_>
      <internalNodes>
        0 -1 1508032 -2.8422126546502113e-02</internalNodes>
      <leafValues>
        4.4409923255443573e-02 -8.0992555618286133e-01</leafValues></_>
    <_>
      <internalNodes>
        0 -1 3023863 -6.3402881096408237e-06</internalNodes>
      <leafValues>
        1.9305257499217987e-01 -2.1095989644527435e-01</leafValues></_>
    <_>
      <internalNodes>
        0 -1 3023359 -6.2310404609888792e-04</internalNodes>
      <leafValues>
        -3.7924066185951233e-01 1.0347143560647964e-01</leafValues></_>
    <_>
      <internalNodes>
        0 -1 27216 4.4201845303177834e-03</internalNodes>
      <leafValues>
        -5.8661110699176788e-02 7.2964471578598022e-01</leafValues></_>
    <_>
      <internalNodes>
        0 -1 697026 -2.4885595776140690e-03</internalNodes>
      <leafValues>
        -8.0276614427566528e-01 6.5462924540042877e-02</leafValues></_>
    <_>
      <internalNodes>
        0 -1 2427750 -5.2890850929543376e-04</internalNodes>
      <leafValues>
        3.6726918816566467e-01 -1.1900182813405991e-01</leafValues></_>
    <_>
      <internalNodes>
        0 -1 3019132 -8.7021697254385799e-05</internalNodes>
      <leafValues>
        -4.4396746158599854e-01 9.6792504191398621e-02</leafValues></_>
    <_>
      <internalNodes>
        0 -1 1928471 -1.0902526264544576e-04</internalNodes>
      <leafValues>
        3.5208630561828613e-01 -1.1364340782165527e-01</leafValues></_>
    <_>
      <internalNodes>
        0 -1 2877961 2.3248975630849600e-03</internalNodes>
      <leafValues>
        5.5684104561805725e-02 -7.4059128761291504e-01</leafValues></_>
    <_>
      <internalNodes>
        0 -1 2819500 3.3095653634518385e-05</internalNodes>
      <leafValues>
        -2.0168133080005646e-01 1.8991652131080627e-01</leafValues></_>
    <_>
      <internalNodes>
        0 -1 2311957 -3.9378926157951355e-03</internalNodes>
      <leafValues>
        -2.9879486560821533e-01 1.4369435608386993e-01</leafValues></_>
    <_>
      <internalNodes>
        0 -1 2896247 -6.4715713961049914e-04</internalNodes>
      <leafValues>
        3.0757012963294983e-01 -1.3268361985683441e-01</leafValues></_>
    <_>
      <internalNodes>
        0 -1 220994 -1.7940128454938531e-03</internalNodes>
      <leafValues>
        -6.3010984659194946e-01 6.1246071010828018e-02</leafValues></_>
    <_>
      <internalNodes>
        0 -1 112655 -9.7333884332329035e-04</internalNodes>
      <leafValues>
        -3.3332335948944092e-01 1.1510346829891205e-01</leafValues></_>
    <_>
      <internalNodes>
        0 -1 52390 -6.9347523152828217e-02</internalNodes>
      <leafValues>
        3.1240794062614441e-01 -1.2759520113468170e-01</leafValues></_></weakClassifiers></stage0>
</opencv_storage>
