<?xml version="1.0"?>
<opencv_storage>
<cascade>
  <stageType>BOOST</stageType>
  <featureType>HAAR</featureType>
  <height>50</height>
  <width>50</width>
  <stageParams>
    <boostType>GAB</boostType>
    <minHitRate>9.9500000476837158e-01</minHitRate>
    <maxFalseAlarm>3.0000001192092896e-01</maxFalseAlarm>
    <weightTrimRate>9.4999999999999996e-01</weightTrimRate>
    <maxDepth>1</maxDepth>
    <maxWeakCount>100</maxWeakCount></stageParams>
  <featureParams>
    <maxCatCount>0</maxCatCount>
    <featSize>1</featSize>
    <mode>BASIC</mode></featureParams>
  <stageNum>10</stageNum>
  <stages>
    <!-- stage 0 -->
    <_>
      <maxWeakCount>41</maxWeakCount>
      <stageThreshold>-5.4718142747879028e-01</stageThreshold>
      <weakClassifiers>
        <_>
          <internalNodes>
            0 -1 177 -2.9888870194554329e-02</internalNodes>
          <leafValues>
            4.9100404977798462e-01 -1.8216319382190704e-01</leafValues></_>
        <_>
          <internalNodes>
            0 -1 288 2.1702188998460770e-02</internalNodes>
          <leafValues>
            -1.3810765743255615e-01 5.0529336929321289e-01</leafValues></_>
        <_>
          <internalNodes>
            0 -1 265 -3.1316380947828293e-02</internalNodes>
          <leafValues>
            -5.3966379165649414e-01 1.2356861680746078e-01</leafValues></_>
        <_>
          <internalNodes>
            0 -1 583 -1.1951497290283442e-03</internalNodes>
          <leafValues>
            -4.7624012827873230e-01 9.0670667588710785e-02</leafValues></_>
        <_>
          <internalNodes>
            0 -1 559 -1.2388343457132578e-03</internalNodes>
          <leafValues>
            -5.0146120786666870e-01 9.0872377157211304e-02</leafValues></_>
        <_>
          <internalNodes>
            0 -1 41 -3.5097543150186539e-02</internalNodes>
          <leafValues>
            3.0088007450103760e-01 -1.5201653540134430e-01</leafValues></_>
        <_>
          <internalNodes>
            0 -1 562 4.4598913518711925e-04</internalNodes>
          <leafValues>
            8.2113742828369141e-02 -4.8169368505477905e-01</leafValues></_>
        <_>
          <internalNodes>
            0 -1 451 5.0362953916192055e-03</internalNodes>
          <leafValues>
            6.2464471906423569e-02 -6.4592742919921875e-01</leafValues></_>
        <_>
          <internalNodes>
            0 -1 471 -9.9449642002582550e-03</internalNodes>
          <leafValues>
            5.0634101033210754e-02 -8.2352846860885620e-01</leafValues></_>
        <_>
          <internalNodes>
            0 -1 99 -1.1374682188034058e-02</internalNodes>
          <leafValues>
            -6.0245215892791748e-01 5.5706378072500229e-02</leafValues></_>
        <_>
          <internalNodes>
            0 -1 275 1.6535841859877110e-03</internalNodes>
          <leafValues>
            -1.4815518260002136e-01 3.0075657367706299e-01</leafValues></_>
        <_>
          <internalNodes>
            0 -1 249 1.2713186442852020e-03</internalNodes>
          <leafValues>
            8.6581580340862274e-02 -5.9170538187026978e-01</leafValues></_>
        <_>
          <internalNodes>
            0 -1 482 -2.2980934008955956e-03</internalNodes>
          <leafValues>
            2.9216617345809937e-01 -1.5798969566822052e-01</leafValues></_>
        <_>
          <internalNodes>
            0 -1 37 6.3688539739814587e-06</internalNodes>
          <leafValues>
            -2.2575092315673828e-01 1.8749921023845673e-01</leafValues></_>
        <_>
          <internalNodes>
            0 -1 240 -3.8165780715644360e-03</internalNodes>
          <leafValues>
            3.9741712808609009e-01 -1.0238358378410339e-01</leafValues></_>
        <_>
          <internalNodes>
            0 -1 72 -4.6867181663401425e-04</internalNodes>
          <leafValues>
            -6.5121173858642578e-01 6.3241809606552124e-02</leafValues></_>
        <_>
          <internalNodes>
            0 -1 219 9.1944559244439006e-05</internalNodes>
          <leafValues>
            -1.5012849867343903e-01 2.8001046180725098e-01</leafValues></_>
        <_>
          <internalNodes>
            0 -1 232 -3.1390818185172975e-04</internalNodes>
          <leafValues>
            3.1358125805854797e-01 -1.3286773860454559e-01</leafValues></_>
        <_>
          <internalNodes>
            0 -1 286 -1.2320122914388776e-03</internalNodes>
          <leafValues>
            5.4707300662994385e-01 -7.2052851319313049e-02</leafValues></_>
        <_>
          <internalNodes>
            0 -1 581 1.3312243390828371e-03</internalNodes>
          <leafValues>
            6.8278677761554718e-02 -6.5829473733901978e-01</leafValues></_>
        <_>
          <internalNodes>
            0 -1 2 -7.2336690500378609e-03</internalNodes>
          <leafValues>
            -5.9908634424209595e-01 6.2296044081449509e-02</leafValues></_>
        <_>
          <internalNodes>
            0 -1 171 8.0870062811300159e-04</internalNodes>
          <leafValues>
            -1.1040236800909042e-01 4.1780039668083191e-01</leafValues></_>
        <_>
          <internalNodes>
            0 -1 458 -5.3509522695094347e-04</internalNodes>
          <leafValues>
            -2.5202322006225586e-01 1.5250223875045776e-01</leafValues></_>
        <_>
          <internalNodes>
            0 -1 477 -6.3368614064529538e-04</internalNodes>
          <leafValues>
            -3.1029662489891052e-01 1.4267326891422272e-01</leafValues></_>
        <_>
          <internalNodes>
            0 -1 201 -3.1659645028412342e-03</internalNodes>
          <leafValues>
            3.6734515428543091e-01 -1.1438550800085068e-01</leafValues></_>
        <_>
          <internalNodes>
            0 -1 144 5.0364958588033915e-04</internalNodes>
          <leafValues>
            7.3425568640232086e-02 -5.9663671255111694e-01</leafValues></_>
        <_>
          <internalNodes>
            0 -1 217 -2.8422126546502113e-02</internalNodes>
          <leafValues>
            4.4409923255443573e-02 -8.0992555618286133e-01</leafValues></_>
        <_>
          <internalNodes>
            0 -1 585 -6.3402881096408237e-06</internalNodes>
          <leafValues>
            1.9305257499217987e-01 -2.1095989644527435e-01</leafValues></_>
        <_>
          <internalNodes>
            0 -1 584 -6.2310404609888792e-04</internalNodes>
          <leafValues>
            -3.7924066185951233e-01 1.0347143560647964e-01</leafValues></_>
        <_>
          <internalNodes>
            0 -1 9 4.4201845303177834e-03</internalNodes>
          <leafValues>
            -5.8661110699176788e-02 7.2964471578598022e-01</leafValues></_>
        <_>
          <internalNodes>
            0 -1 132 -2.4885595776140690e-03</internalNodes>
          <leafValues>
            -8.0276614427566528e-01 6.5462924540042877e-02</leafValues></_>
        <_>
          <internalNodes>
            0 -1 329 -5.2890850929543376e-04</internalNodes>
          <leafValues>
            3.6726918816566467e-01 -1.1900182813405991e-01</leafValues></_>
        <_>
          <internalNodes>
            0 -1 575 -8.7021697254385799e-05</internalNodes>
          <leafValues>
            -4.4396746158599854e-01 9.6792504191398621e-02</leafValues></_>
        <_>
          <internalNodes>
            0 -1 259 -1.0902526264544576e-04</internalNodes>
          <leafValues>
            3.5208630561828613e-01 -1.1364340782165527e-01</leafValues></_>
        <_>
          <internalNodes>
            0 -1 437 2.3248975630849600e-03</internalNodes>
          <leafValues>
            5.5684104561805725e-02 -7.4059128761291504e-01</leafValues></_>
        <_>
          <internalNodes>
            0 -1 404 3.3095653634518385e-05</internalNodes>
          <leafValues>
            -2.0168133080005646e-01 1.8991652131080627e-01</leafValues></_>
        <_>
          <internalNodes>
            0 -1 314 -3.9378926157951355e-03</internalNodes>
          <leafValues>
            -2.9879486560821533e-01 1.4369435608386993e-01</leafValues></_>
        <_>
          <internalNodes>
            0 -1 449 -6.4715713961049914e-04</internalNodes>
          <leafValues>
            3.0757012963294983e-01 -1.3268361985683441e-01</leafValues></_>
        <_>
          <internalNodes>
            0 -1 58 -1.7940128454938531e-03</internalNodes>
          <leafValues>
            -6.3010984659194946e-01 6.1246071010828018e-02</leafValues></_>
        <_>
          <internalNodes>
            0 -1 34 -9.7333884332329035e-04</internalNodes>
          <leafValues>
            -3.3332335948944092e-01 1.1510346829891205e-01</leafValues></_>
        <_>
          <internalNodes>
            0 -1 17 -6.9347523152828217e-02</internalNodes>
          <leafValues>
            3.1240794062614441e-01 -1.2759520113468170e-01</leafValues></_></weakClassifiers></_>
    <!-- stage 1 -->
    <_>
      <maxWeakCount>51</maxWeakCount>
      <stageThreshold>-4.2836099863052368e-01</stageThreshold>
      <weakClassifiers>
        <_>
          <internalNodes>
            0 -1 81 -1.6602516174316406e-02</internalNodes>
          <leafValues>
            4.7679045796394348e-01 4.1778974235057831e-02</leafValues></_>
        <_>
          <internalNodes>
            0 -1 242 -1.5482937917113304e-02</internalNodes>
          <leafValues>
            3.0175611376762390e-01 -1.3289740681648254e-01</leafValues></_>
        <_>
          <internalNodes>
            0 -1 283 4.1820546612143517e-03</internalNodes>
          <leafValues>
            -9.1363266110420227e-02 4.0089586377143860e-01</leafValues></_>
        <_>
          <internalNodes>
            0 -1 309 1.2918590800836682e-04</internalNodes>
          <leafValues>
            -1.1651867628097534e-01 2.9753306508064270e-01</leafValues></_>
        <_>
          <internalNodes>
            0 -1 279 -2.0692456746473908e-04</internalNodes>
          <leafValues>
            2.8303131461143494e-01 -1.2124386429786682e-01</leafValues></_>
        <_>
          <internalNodes>
            0 -1 341 -1.3882037819712423e-05</internalNodes>
          <leafValues>
            1.6503258049488068e-01 -1.8927375972270966e-01</leafValues></_>
        <_>
          <internalNodes>
            0 -1 580 -1.4896853826940060e-03</internalNodes>
          <leafValues>
            -4.2820316553115845e-01 6.9264151155948639e-02</leafValues></_>
        <_>
          <internalNodes>
            0 -1 333 2.0853675901889801e-02</internalNodes>
          <leafValues>
            -1.3931699097156525e-01 2.1416141092777252e-01</leafValues></_>
        <_>
          <internalNodes>
            0 -1 530 -8.9901662431657314e-04</internalNodes>
          <leafValues>
            -8.3396717905998230e-02 4.3801653385162354e-01</leafValues></_>
        <_>
          <internalNodes>
            0 -1 548 -7.0315797347575426e-04</internalNodes>
          <leafValues>
            1.6129872202873230e-01 -2.5101086497306824e-01</leafValues></_>
        <_>
          <internalNodes>
            0 -1 422 -5.2556738955900073e-04</internalNodes>
          <leafValues>
            -5.9000059962272644e-02 5.2997100353240967e-01</leafValues></_>
        <_>
          <internalNodes>
            0 -1 312 4.1562149999663234e-04</internalNodes>
          <leafValues>
            -6.6138744354248047e-02 4.2964890599250793e-01</leafValues></_>
        <_>
          <internalNodes>
            0 -1 465 5.1140310242772102e-03</internalNodes>
          <leafValues>
            9.9343135952949524e-02 -3.5322487354278564e-01</leafValues></_>
        <_>
          <internalNodes>
            0 -1 447 -1.2088849325664341e-04</internalNodes>
          <leafValues>
            -2.7255704998970032e-01 1.2868852913379669e-01</leafValues></_>
        <_>
          <internalNodes>
            0 -1 292 9.7214628476649523e-04</internalNodes>
          <leafValues>
            -1.1818328499794006e-01 2.9195910692214966e-01</leafValues></_>
        <_>
          <internalNodes>
            0 -1 463 2.0426121773198247e-04</internalNodes>
          <leafValues>
            1.2929449975490570e-01 -2.5769689679145813e-01</leafValues></_>
        <_>
          <internalNodes>
            0 -1 322 -1.4531878696288913e-04</internalNodes>
          <leafValues>
            3.6428803205490112e-01 -9.0060204267501831e-02</leafValues></_>
        <_>
          <internalNodes>
            0 -1 403 -2.6588691980578005e-04</internalNodes>
          <leafValues>
            -4.8340681195259094e-01 7.0733703672885895e-02</leafValues></_>
        <_>
          <internalNodes>
            0 -1 516 -2.7833977947011590e-04</internalNodes>
          <leafValues>
            2.9169094562530518e-01 -1.2276764214038849e-01</leafValues></_>
        <_>
          <internalNodes>
            0 -1 441 -4.8212205001618713e-05</internalNodes>
          <leafValues>
            -3.1568968296051025e-01 1.0849824547767639e-01</leafValues></_>
        <_>
          <internalNodes>
            0 -1 301 -4.6161032514646649e-04</internalNodes>
          <leafValues>
            4.4848808646202087e-01 -7.0625707507133484e-02</leafValues></_>
        <_>
          <internalNodes>
            0 -1 311 1.3473366561811417e-04</internalNodes>
          <leafValues>
            -1.0082300752401352e-01 3.7944737076759338e-01</leafValues></_>
        <_>
          <internalNodes>
            0 -1 120 2.5292960926890373e-03</internalNodes>
          <leafValues>
            8.3235517144203186e-02 -4.3128013610839844e-01</leafValues></_>
        <_>
          <internalNodes>
            0 -1 91 4.1517693898640573e-04</internalNodes>
          <leafValues>
            5.2476368844509125e-02 -6.0812062025070190e-01</leafValues></_>
        <_>
          <internalNodes>
            0 -1 85 4.3132691644132137e-03</internalNodes>
          <leafValues>
            -6.3170716166496277e-02 5.5449771881103516e-01</leafValues></_>
        <_>
          <internalNodes>
            0 -1 162 1.6324028372764587e-02</internalNodes>
          <leafValues>
            6.9642022252082825e-02 -6.0622644424438477e-01</leafValues></_>
        <_>
          <internalNodes>
            0 -1 385 2.6606172323226929e-02</internalNodes>
          <leafValues>
            -6.6274426877498627e-02 6.2407785654067993e-01</leafValues></_>
        <_>
          <internalNodes>
            0 -1 39 2.7746278792619705e-03</internalNodes>
          <leafValues>
            -6.9789409637451172e-02 4.6587952971458435e-01</leafValues></_>
        <_>
          <internalNodes>
            0 -1 57 -8.0217458307743073e-03</internalNodes>
          <leafValues>
            -3.4815865755081177e-01 1.0518832504749298e-01</leafValues></_>
        <_>
          <internalNodes>
            0 -1 276 -9.1704241931438446e-03</internalNodes>
          <leafValues>
            4.0052056312561035e-02 -7.6888221502304077e-01</leafValues></_>
        <_>
          <internalNodes>
            0 -1 185 -1.4998301863670349e-02</internalNodes>
          <leafValues>
            3.0270165205001831e-01 -1.2766370177268982e-01</leafValues></_>
        <_>
          <internalNodes>
            0 -1 325 6.6756387241184711e-04</internalNodes>
          <leafValues>
            -1.2660738825798035e-01 2.8815683722496033e-01</leafValues></_>
        <_>
          <internalNodes>
            0 -1 32 3.7803696468472481e-03</internalNodes>
          <leafValues>
            9.9372908473014832e-02 -3.4929314255714417e-01</leafValues></_>
        <_>
          <internalNodes>
            0 -1 544 -4.3890147935599089e-04</internalNodes>
          <leafValues>
            -4.1809791326522827e-01 7.9872794449329376e-02</leafValues></_>
        <_>
          <internalNodes>
            0 -1 544 3.2370802364312112e-04</internalNodes>
          <leafValues>
            1.1006619781255722e-01 -3.5203060507774353e-01</leafValues></_>
        <_>
          <internalNodes>
            0 -1 350 8.5824518464505672e-05</internalNodes>
          <leafValues>
            -1.1596297472715378e-01 3.1841000914573669e-01</leafValues></_>
        <_>
          <internalNodes>
            0 -1 318 1.9530928693711758e-04</internalNodes>
          <leafValues>
            -9.5177501440048218e-02 3.6010617017745972e-01</leafValues></_>
        <_>
          <internalNodes>
            0 -1 537 5.7977493270300329e-05</internalNodes>
          <leafValues>
            -1.7629408836364746e-01 1.9067813456058502e-01</leafValues></_>
        <_>
          <internalNodes>
            0 -1 550 6.3877092907205224e-04</internalNodes>
          <leafValues>
            7.4633002281188965e-02 -4.6850937604904175e-01</leafValues></_>
        <_>
          <internalNodes>
            0 -1 228 -3.4298705868422985e-03</internalNodes>
          <leafValues>
            6.3271051645278931e-01 -5.7676039636135101e-02</leafValues></_>
        <_>
          <internalNodes>
            0 -1 76 -2.5896655643009581e-05</internalNodes>
          <leafValues>
            -1.9632484018802643e-01 1.6796849668025970e-01</leafValues></_>
        <_>
          <internalNodes>
            0 -1 313 -2.7779627591371536e-02</internalNodes>
          <leafValues>
            -7.7210390567779541e-01 4.1067659854888916e-02</leafValues></_>
        <_>
          <internalNodes>
            0 -1 131 1.4805345563217998e-04</internalNodes>
          <leafValues>
            4.5647367835044861e-02 -6.2696123123168945e-01</leafValues></_>
        <_>
          <internalNodes>
            0 -1 501 7.7974435407668352e-04</internalNodes>
          <leafValues>
            -6.4613446593284607e-02 5.9139215946197510e-01</leafValues></_>
        <_>
          <internalNodes>
            0 -1 368 3.1016583670862019e-04</internalNodes>
          <leafValues>
            -1.5952228009700775e-01 2.0582295954227448e-01</leafValues></_>
        <_>
          <internalNodes>
            0 -1 271 -4.4998858356848359e-04</internalNodes>
          <leafValues>
            3.7728402018547058e-01 -8.9860066771507263e-02</leafValues></_>
        <_>
          <internalNodes>
            0 -1 281 3.0817452352494001e-04</internalNodes>
          <leafValues>
            -9.6571475267410278e-02 3.5773715376853943e-01</leafValues></_>
        <_>
          <internalNodes>
            0 -1 199 -7.1973656304180622e-04</internalNodes>
          <leafValues>
            -7.4870055913925171e-01 5.0678625702857971e-02</leafValues></_>
        <_>
          <internalNodes>
            0 -1 216 -7.9769995063543320e-03</internalNodes>
          <leafValues>
            3.7507146596908569e-01 -9.9254734814167023e-02</leafValues></_>
        <_>
          <internalNodes>
            0 -1 184 1.1377421906217933e-03</internalNodes>
          <leafValues>
            9.7916096448898315e-02 -3.5380476713180542e-01</leafValues></_>
        <_>
          <internalNodes>
            0 -1 175 -5.5021308071445674e-05</internalNodes>
          <leafValues>
            -2.5531682372093201e-01 1.3264822959899902e-01</leafValues></_></weakClassifiers></_>
    <!-- stage 2 -->
    <_>
      <maxWeakCount>62</maxWeakCount>
      <stageThreshold>-4.2107760906219482e-01</stageThreshold>
      <weakClassifiers>
        <_>
          <internalNodes>
            0 -1 3 -2.7266965480521321e-04</internalNodes>
          <leafValues>
            5.2763295173645020e-01 1.8900077044963837e-01</leafValues></_>
        <_>
          <internalNodes>
            0 -1 83 -3.3226236701011658e-02</internalNodes>
          <leafValues>
            2.8460636734962463e-01 -1.1637723445892334e-01</leafValues></_>
        <_>
          <internalNodes>
            0 -1 8 -5.8700342196971178e-04</internalNodes>
          <leafValues>
            4.8073562979698181e-01 -6.1932515352964401e-02</leafValues></_>
        <_>
          <internalNodes>
            0 -1 75 -4.7246101312339306e-03</internalNodes>
          <leafValues>
            -1.3048490881919861e-01 2.8641736507415771e-01</leafValues></_>
        <_>
          <internalNodes>
            0 -1 298 -1.1500957189127803e-03</internalNodes>
          <leafValues>
            3.1142017245292664e-01 -1.0603035241365433e-01</leafValues></_>
        <_>
          <internalNodes>
            0 -1 277 -1.0130883892998099e-03</internalNodes>
          <leafValues>
            4.1720908880233765e-01 -8.4836244583129883e-02</leafValues></_>
        <_>
          <internalNodes>
            0 -1 244 -2.5746264145709574e-04</internalNodes>
          <leafValues>
            3.0710142850875854e-01 -8.7103039026260376e-02</leafValues></_>
        <_>
          <internalNodes>
            0 -1 254 -4.3620709329843521e-03</internalNodes>
          <leafValues>
            -3.4037342667579651e-01 9.2745997011661530e-02</leafValues></_>
        <_>
          <internalNodes>
            0 -1 79 3.3183498308062553e-03</internalNodes>
          <leafValues>
            4.3810822069644928e-02 -6.7943179607391357e-01</leafValues></_>
        <_>
          <internalNodes>
            0 -1 342 -3.3548705687280744e-05</internalNodes>
          <leafValues>
            1.9279137253761292e-01 -1.4309664070606232e-01</leafValues></_>
        <_>
          <internalNodes>
            0 -1 402 -3.8966448046267033e-03</internalNodes>
          <leafValues>
            -5.4047179222106934e-01 5.2614338696002960e-02</leafValues></_>
        <_>
          <internalNodes>
            0 -1 446 -3.8649348425678909e-05</internalNodes>
          <leafValues>
            -2.7214822173118591e-01 1.0457362234592438e-01</leafValues></_>
        <_>
          <internalNodes>
            0 -1 421 7.9178554005920887e-04</internalNodes>
          <leafValues>
            -6.1876311898231506e-02 5.4163736104965210e-01</leafValues></_>
        <_>
          <internalNodes>
            0 -1 15 -3.9361468516290188e-03</internalNodes>
          <leafValues>
            -7.1772062778472900e-01 5.0735265016555786e-02</leafValues></_>
        <_>
          <internalNodes>
            0 -1 439 4.1054387111216784e-04</internalNodes>
          <leafValues>
            4.5095186680555344e-02 -5.9926998615264893e-01</leafValues></_>
        <_>
          <internalNodes>
            0 -1 305 7.5059250229969621e-04</internalNodes>
          <leafValues>
            -1.0397749394178391e-01 2.9045030474662781e-01</leafValues></_>
        <_>
          <internalNodes>
            0 -1 573 -3.2010088034439832e-05</internalNodes>
          <leafValues>
            -2.2115898132324219e-01 1.5326404571533203e-01</leafValues></_>
        <_>
          <internalNodes>
            0 -1 517 4.0222349343821406e-04</internalNodes>
          <leafValues>
            1.5804024040699005e-01 -1.9748775660991669e-01</leafValues></_>
        <_>
          <internalNodes>
            0 -1 396 -4.0982691571116447e-03</internalNodes>
          <leafValues>
            6.3847035169601440e-01 -5.2125822752714157e-02</leafValues></_>
        <_>
          <internalNodes>
            0 -1 262 5.9668869653251022e-05</internalNodes>
          <leafValues>
            1.6382806003093719e-01 -2.0493754744529724e-01</leafValues></_>
        <_>
          <internalNodes>
            0 -1 246 -4.5497819781303406e-02</internalNodes>
          <leafValues>
            -3.4088709950447083e-01 9.0122930705547333e-02</leafValues></_>
        <_>
          <internalNodes>
            0 -1 270 -2.9733730480074883e-04</internalNodes>
          <leafValues>
            3.3236727118492126e-01 -9.2590518295764923e-02</leafValues></_>
        <_>
          <internalNodes>
            0 -1 260 3.7544505903497338e-04</internalNodes>
          <leafValues>
            -7.4631616473197937e-02 3.8600194454193115e-01</leafValues></_>
        <_>
          <internalNodes>
            0 -1 7 1.3519545973394997e-05</internalNodes>
          <leafValues>
            1.5699309110641479e-01 -1.8898716568946838e-01</leafValues></_>
        <_>
          <internalNodes>
            0 -1 417 1.9030345356441103e-05</internalNodes>
          <leafValues>
            -1.5664811432361603e-01 1.9832833111286163e-01</leafValues></_>
        <_>
          <internalNodes>
            0 -1 284 -2.9090396128594875e-04</internalNodes>
          <leafValues>
            2.1122595667839050e-01 -1.3868273794651031e-01</leafValues></_>
        <_>
          <internalNodes>
            0 -1 579 1.0640830732882023e-03</internalNodes>
          <leafValues>
            7.9390004277229309e-02 -3.9703792333602905e-01</leafValues></_>
        <_>
          <internalNodes>
            0 -1 436 1.4055862557142973e-03</internalNodes>
          <leafValues>
            1.2786920368671417e-01 -2.3125797510147095e-01</leafValues></_>
        <_>
          <internalNodes>
            0 -1 221 1.3777774292975664e-03</internalNodes>
          <leafValues>
            -1.0497327893972397e-01 2.9508394002914429e-01</leafValues></_>
        <_>
          <internalNodes>
            0 -1 336 1.1499598622322083e-04</internalNodes>
          <leafValues>
            -9.6730403602123260e-02 3.2819494605064392e-01</leafValues></_>
        <_>
          <internalNodes>
            0 -1 321 9.0671214275062084e-04</internalNodes>
          <leafValues>
            -1.0553480684757233e-01 2.7980887889862061e-01</leafValues></_>
        <_>
          <internalNodes>
            0 -1 261 3.1118432525545359e-03</internalNodes>
          <leafValues>
            4.6128876507282257e-02 -7.1128642559051514e-01</leafValues></_>
        <_>
          <internalNodes>
            0 -1 211 -7.7772000804543495e-04</internalNodes>
          <leafValues>
            -7.3242181539535522e-01 3.7506904453039169e-02</leafValues></_>
        <_>
          <internalNodes>
            0 -1 339 8.7662087753415108e-04</internalNodes>
          <leafValues>
            -6.9017164409160614e-02 4.3322664499282837e-01</leafValues></_>
        <_>
          <internalNodes>
            0 -1 416 -8.5747189586982131e-05</internalNodes>
          <leafValues>
            -2.6919510960578918e-01 1.1852848529815674e-01</leafValues></_>
        <_>
          <internalNodes>
            0 -1 564 6.6396216861903667e-03</internalNodes>
          <leafValues>
            3.2450288534164429e-02 -9.3503803014755249e-01</leafValues></_>
        <_>
          <internalNodes>
            0 -1 538 -8.2334247417747974e-04</internalNodes>
          <leafValues>
            -5.3217208385467529e-01 4.4075347483158112e-02</leafValues></_>
        <_>
          <internalNodes>
            0 -1 353 4.2740131902974099e-05</internalNodes>
          <leafValues>
            -1.5137493610382080e-01 2.1918208897113800e-01</leafValues></_>
        <_>
          <internalNodes>
            0 -1 323 2.1165909129194915e-04</internalNodes>
          <leafValues>
            -1.0097075998783112e-01 2.9527223110198975e-01</leafValues></_>
        <_>
          <internalNodes>
            0 -1 84 -2.3716851137578487e-03</internalNodes>
          <leafValues>
            4.0938004851341248e-01 -7.4359551072120667e-02</leafValues></_>
        <_>
          <internalNodes>
            0 -1 153 -5.0201928243041039e-03</internalNodes>
          <leafValues>
            -6.8776178359985352e-01 5.0477176904678345e-02</leafValues></_>
        <_>
          <internalNodes>
            0 -1 208 -1.5924945182632655e-04</internalNodes>
          <leafValues>
            2.1612520515918732e-01 -1.4247304201126099e-01</leafValues></_>
        <_>
          <internalNodes>
            0 -1 494 -1.2707491987384856e-04</internalNodes>
          <leafValues>
            -4.1195374727249146e-01 6.8383991718292236e-02</leafValues></_>
        <_>
          <internalNodes>
            0 -1 310 -2.8904646751470864e-04</internalNodes>
          <leafValues>
            2.3881249129772186e-01 -1.2842251360416412e-01</leafValues></_>
        <_>
          <internalNodes>
            0 -1 235 5.9309462085366249e-03</internalNodes>
          <leafValues>
            4.3521691113710403e-02 -6.7223656177520752e-01</leafValues></_>
        <_>
          <internalNodes>
            0 -1 317 1.7669293447397649e-04</internalNodes>
          <leafValues>
            -8.6111120879650116e-02 3.7933072447776794e-01</leafValues></_>
        <_>
          <internalNodes>
            0 -1 302 -3.2283851760439575e-04</internalNodes>
          <leafValues>
            3.8303524255752563e-02 -8.6973404884338379e-01</leafValues></_>
        <_>
          <internalNodes>
            0 -1 253 -2.8240341693162918e-02</internalNodes>
          <leafValues>
            2.6124921441078186e-01 -1.1616241931915283e-01</leafValues></_>
        <_>
          <internalNodes>
            0 -1 266 8.1027694977819920e-04</internalNodes>
          <leafValues>
            -1.0584001243114471e-01 3.0713012814521790e-01</leafValues></_>
        <_>
          <internalNodes>
            0 -1 167 -6.3160257413983345e-03</internalNodes>
          <leafValues>
            -3.9667360484600067e-02 7.5116342306137085e-01</leafValues></_>
        <_>
          <internalNodes>
            0 -1 525 9.4145580078475177e-06</internalNodes>
          <leafValues>
            -1.7816293239593506e-01 1.7171025276184082e-01</leafValues></_>
        <_>
          <internalNodes>
            0 -1 324 2.2019445896148682e-03</internalNodes>
          <leafValues>
            -1.4236277341842651e-01 2.2921876609325409e-01</leafValues></_>
        <_>
          <internalNodes>
            0 -1 539 -4.4978733058087528e-04</internalNodes>
          <leafValues>
            -6.7272341251373291e-01 4.4278994202613831e-02</leafValues></_>
        <_>
          <internalNodes>
            0 -1 307 2.4051722139120102e-03</internalNodes>
          <leafValues>
            -8.3920173346996307e-02 3.4246960282325745e-01</leafValues></_>
        <_>
          <internalNodes>
            0 -1 170 5.3796172142028809e-04</internalNodes>
          <leafValues>
            4.5272991061210632e-02 -6.6201227903366089e-01</leafValues></_>
        <_>
          <internalNodes>
            0 -1 102 1.6809836961328983e-04</internalNodes>
          <leafValues>
            4.1981205344200134e-02 -5.9501606225967407e-01</leafValues></_>
        <_>
          <internalNodes>
            0 -1 117 -1.9989423453807831e-03</internalNodes>
          <leafValues>
            2.6240766048431396e-01 -1.1473374813795090e-01</leafValues></_>
        <_>
          <internalNodes>
            0 -1 267 -2.6360566262155771e-03</internalNodes>
          <leafValues>
            3.4496906399726868e-01 -8.0703236162662506e-02</leafValues></_>
        <_>
          <internalNodes>
            0 -1 586 -8.7660700082778931e-03</internalNodes>
          <leafValues>
            7.3190516233444214e-01 -3.4292999655008316e-02</leafValues></_>
        <_>
          <internalNodes>
            0 -1 90 5.9710022469516844e-05</internalNodes>
          <leafValues>
            9.2669785022735596e-02 -3.3783835172653198e-01</leafValues></_>
        <_>
          <internalNodes>
            0 -1 21 1.4934570936020464e-04</internalNodes>
          <leafValues>
            -9.8155751824378967e-02 3.3303350210189819e-01</leafValues></_>
        <_>
          <internalNodes>
            0 -1 203 1.8138915766030550e-04</internalNodes>
          <leafValues>
            1.2261849641799927e-01 -2.6874339580535889e-01</leafValues></_></weakClassifiers></_>
    <!-- stage 3 -->
    <_>
      <maxWeakCount>56</maxWeakCount>
      <stageThreshold>-4.2398425936698914e-01</stageThreshold>
      <weakClassifiers>
        <_>
          <internalNodes>
            0 -1 245 -1.3827825896441936e-02</internalNodes>
          <leafValues>
            9.6153849735856056e-03 4.5756456255912781e-01</leafValues></_>
        <_>
          <internalNodes>
            0 -1 454 1.6892622807063162e-04</internalNodes>
          <leafValues>
            -7.7804051339626312e-02 3.5463446378707886e-01</leafValues></_>
        <_>
          <internalNodes>
            0 -1 381 3.0385756865143776e-02</internalNodes>
          <leafValues>
            -9.0880714356899261e-02 3.3764952421188354e-01</leafValues></_>
        <_>
          <internalNodes>
            0 -1 180 -3.6573384422808886e-03</internalNodes>
          <leafValues>
            3.2178229093551636e-01 -1.0886647552251816e-01</leafValues></_>
        <_>
          <internalNodes>
            0 -1 159 9.7876810468733311e-04</internalNodes>
          <leafValues>
            -1.5610603988170624e-01 2.8554692864418030e-01</leafValues></_>
        <_>
          <internalNodes>
            0 -1 172 -7.3230103589594364e-04</internalNodes>
          <leafValues>
            2.7497580647468567e-01 -1.3615825772285461e-01</leafValues></_>
        <_>
          <internalNodes>
            0 -1 410 -3.0825786292552948e-02</internalNodes>
          <leafValues>
            -8.2969754934310913e-01 4.7656610608100891e-02</leafValues></_>
        <_>
          <internalNodes>
            0 -1 155 5.8345282450318336e-03</internalNodes>
          <leafValues>
            -1.0322681069374084e-01 3.0802997946739197e-01</leafValues></_>
        <_>
          <internalNodes>
            0 -1 128 -4.6530808322131634e-04</internalNodes>
          <leafValues>
            -4.9234393239021301e-01 6.7046925425529480e-02</leafValues></_>
        <_>
          <internalNodes>
            0 -1 533 -6.1379757244139910e-04</internalNodes>
          <leafValues>
            -1.0985693335533142e-01 2.8141137957572937e-01</leafValues></_>
        <_>
          <internalNodes>
            0 -1 304 2.6880949735641479e-03</internalNodes>
          <leafValues>
            -9.4784371554851532e-02 3.1174752116203308e-01</leafValues></_>
        <_>
          <internalNodes>
            0 -1 560 -8.8659216999076307e-05</internalNodes>
          <leafValues>
            -2.1750156581401825e-01 1.6326542198657990e-01</leafValues></_>
        <_>
          <internalNodes>
            0 -1 475 -5.5725527927279472e-03</internalNodes>
          <leafValues>
            -6.5995192527770996e-01 4.6122737228870392e-02</leafValues></_>
        <_>
          <internalNodes>
            0 -1 59 -1.4651991659775376e-04</internalNodes>
          <leafValues>
            -5.1480984687805176e-01 5.6167397648096085e-02</leafValues></_>
        <_>
          <internalNodes>
            0 -1 377 -1.3498275075107813e-04</internalNodes>
          <leafValues>
            3.3995270729064941e-01 -1.0153331607580185e-01</leafValues></_>
        <_>
          <internalNodes>
            0 -1 282 2.2524879022967070e-04</internalNodes>
          <leafValues>
            -6.6059805452823639e-02 4.1974839568138123e-01</leafValues></_>
        <_>
          <internalNodes>
            0 -1 198 -4.7083347453735769e-05</internalNodes>
          <leafValues>
            2.4234852194786072e-01 -1.2346491217613220e-01</leafValues></_>
        <_>
          <internalNodes>
            0 -1 227 -6.9113820791244507e-04</internalNodes>
          <leafValues>
            3.3493980765342712e-01 -1.0085785388946533e-01</leafValues></_>
        <_>
          <internalNodes>
            0 -1 290 4.5550291542895138e-04</internalNodes>
          <leafValues>
            -1.0247669368982315e-01 2.7899584174156189e-01</leafValues></_>
        <_>
          <internalNodes>
            0 -1 100 -9.9255383247509599e-05</internalNodes>
          <leafValues>
            -4.1109660267829895e-01 7.6277486979961395e-02</leafValues></_>
        <_>
          <internalNodes>
            0 -1 197 -4.7240953426808119e-04</internalNodes>
          <leafValues>
            -7.6500493288040161e-01 3.6988615989685059e-02</leafValues></_>
        <_>
          <internalNodes>
            0 -1 209 3.3628533128648996e-04</internalNodes>
          <leafValues>
            -9.5834136009216309e-02 3.6033165454864502e-01</leafValues></_>
        <_>
          <internalNodes>
            0 -1 343 -1.9611008465290070e-03</internalNodes>
          <leafValues>
            3.1792113184928894e-01 -9.7470678389072418e-02</leafValues></_>
        <_>
          <internalNodes>
            0 -1 114 -4.2516829125816002e-05</internalNodes>
          <leafValues>
            -3.3273017406463623e-01 9.7880899906158447e-02</leafValues></_>
        <_>
          <internalNodes>
            0 -1 332 9.4098679255694151e-04</internalNodes>
          <leafValues>
            8.7976388633251190e-02 -3.7160772085189819e-01</leafValues></_>
        <_>
          <internalNodes>
            0 -1 189 -6.1575614381581545e-04</internalNodes>
          <leafValues>
            2.4025630950927734e-01 -1.2728680670261383e-01</leafValues></_>
        <_>
          <internalNodes>
            0 -1 391 -1.2100745225325227e-03</internalNodes>
          <leafValues>
            4.9979278445243835e-01 -6.5268903970718384e-02</leafValues></_>
        <_>
          <internalNodes>
            0 -1 374 8.7713706307113171e-04</internalNodes>
          <leafValues>
            -8.3503268659114838e-02 3.9660754799842834e-01</leafValues></_>
        <_>
          <internalNodes>
            0 -1 490 4.2909877374768257e-03</internalNodes>
          <leafValues>
            8.5816338658332825e-02 -3.8937994837760925e-01</leafValues></_>
        <_>
          <internalNodes>
            0 -1 565 -2.8455490246415138e-04</internalNodes>
          <leafValues>
            -5.0345861911773682e-01 6.1231665313243866e-02</leafValues></_>
        <_>
          <internalNodes>
            0 -1 456 6.8922300124540925e-04</internalNodes>
          <leafValues>
            -1.2566190958023071e-01 2.6445001363754272e-01</leafValues></_>
        <_>
          <internalNodes>
            0 -1 238 -1.4532317873090506e-03</internalNodes>
          <leafValues>
            -4.1234770417213440e-01 9.0323708951473236e-02</leafValues></_>
        <_>
          <internalNodes>
            0 -1 257 1.3826323265675455e-04</internalNodes>
          <leafValues>
            -9.1833025217056274e-02 3.4947121143341064e-01</leafValues></_>
        <_>
          <internalNodes>
            0 -1 337 -1.6736090183258057e-03</internalNodes>
          <leafValues>
            2.3734591901302338e-01 -1.2770353257656097e-01</leafValues></_>
        <_>
          <internalNodes>
            0 -1 71 2.3785203666193411e-05</internalNodes>
          <leafValues>
            1.1907798796892166e-01 -2.6286646723747253e-01</leafValues></_>
        <_>
          <internalNodes>
            0 -1 11 -5.3847550589125603e-05</internalNodes>
          <leafValues>
            2.5897267460823059e-01 -1.3534475862979889e-01</leafValues></_>
        <_>
          <internalNodes>
            0 -1 46 -2.4649223778396845e-03</internalNodes>
          <leafValues>
            -4.9701578915119171e-02 6.2625294923782349e-01</leafValues></_>
        <_>
          <internalNodes>
            0 -1 105 1.0088692419230938e-02</internalNodes>
          <leafValues>
            -1.6283927857875824e-01 2.0716057717800140e-01</leafValues></_>
        <_>
          <internalNodes>
            0 -1 556 -1.8530357920099050e-04</internalNodes>
          <leafValues>
            -7.1909904479980469e-01 4.4199127703905106e-02</leafValues></_>
        <_>
          <internalNodes>
            0 -1 97 -3.5903137177228928e-03</internalNodes>
          <leafValues>
            3.9474844932556152e-01 -8.6554273962974548e-02</leafValues></_>
        <_>
          <internalNodes>
            0 -1 389 -2.9001600341871381e-04</internalNodes>
          <leafValues>
            -7.8076350688934326e-01 4.5363929122686386e-02</leafValues></_>
        <_>
          <internalNodes>
            0 -1 511 -3.0284767854027450e-04</internalNodes>
          <leafValues>
            3.2812699675559998e-01 -9.7132928669452667e-02</leafValues></_>
        <_>
          <internalNodes>
            0 -1 178 -2.2184459958225489e-03</internalNodes>
          <leafValues>
            1.8735145032405853e-01 -1.7982622981071472e-01</leafValues></_>
        <_>
          <internalNodes>
            0 -1 495 -2.6332517154514790e-04</internalNodes>
          <leafValues>
            -2.8993159532546997e-01 1.1123523861169815e-01</leafValues></_>
        <_>
          <internalNodes>
            0 -1 348 4.4400125741958618e-02</internalNodes>
          <leafValues>
            -1.0194335877895355e-01 3.4637296199798584e-01</leafValues></_>
        <_>
          <internalNodes>
            0 -1 409 4.1259964928030968e-04</internalNodes>
          <leafValues>
            -9.8753795027732849e-02 3.4219887852668762e-01</leafValues></_>
        <_>
          <internalNodes>
            0 -1 82 -2.7004693401977420e-04</internalNodes>
          <leafValues>
            -7.9278224706649780e-01 5.1386911422014236e-02</leafValues></_>
        <_>
          <internalNodes>
            0 -1 577 6.8963144440203905e-04</internalNodes>
          <leafValues>
            -1.4347654581069946e-01 2.4017368257045746e-01</leafValues></_>
        <_>
          <internalNodes>
            0 -1 224 3.3168271183967590e-02</internalNodes>
          <leafValues>
            4.7338820993900299e-02 -7.4908405542373657e-01</leafValues></_>
        <_>
          <internalNodes>
            0 -1 443 5.2513281116262078e-04</internalNodes>
          <leafValues>
            7.9327128827571869e-02 -3.6869761347770691e-01</leafValues></_>
        <_>
          <internalNodes>
            0 -1 273 1.7264783382415771e-03</internalNodes>
          <leafValues>
            -1.2708310782909393e-01 2.5804623961448669e-01</leafValues></_>
        <_>
          <internalNodes>
            0 -1 30 6.1109452508389950e-04</internalNodes>
          <leafValues>
            6.8736501038074493e-02 -4.8925170302391052e-01</leafValues></_>
        <_>
          <internalNodes>
            0 -1 74 8.2663155626505613e-04</internalNodes>
          <leafValues>
            -1.0940043628215790e-01 3.1708571314811707e-01</leafValues></_>
        <_>
          <internalNodes>
            0 -1 87 -8.3463545888662338e-03</internalNodes>
          <leafValues>
            -9.6768015623092651e-01 3.1239427626132965e-02</leafValues></_>
        <_>
          <internalNodes>
            0 -1 93 2.2679835092276335e-04</internalNodes>
          <leafValues>
            -1.1877090483903885e-01 2.7083179354667664e-01</leafValues></_>
        <_>
          <internalNodes>
            0 -1 112 1.7309753457084298e-04</internalNodes>
          <leafValues>
            1.2722636759281158e-01 -2.7073565125465393e-01</leafValues></_></weakClassifiers></_>
    <!-- stage 4 -->
    <_>
      <maxWeakCount>49</maxWeakCount>
      <stageThreshold>-2.9511144757270813e-01</stageThreshold>
      <weakClassifiers>
        <_>
          <internalNodes>
            0 -1 56 -1.6074918676167727e-03</internalNodes>
          <leafValues>
            -6.5467625856399536e-01 3.6482459306716919e-01</leafValues></_>
        <_>
          <internalNodes>
            0 -1 330 1.1258827522397041e-02</internalNodes>
          <leafValues>
            -2.7553968131542206e-02 6.3583999872207642e-01</leafValues></_>
        <_>
          <internalNodes>
            0 -1 483 1.0151623282581568e-03</internalNodes>
          <leafValues>
            -1.0508856177330017e-01 5.5824637413024902e-01</leafValues></_>
        <_>
          <internalNodes>
            0 -1 363 4.2993254959583282e-02</internalNodes>
          <leafValues>
            -6.0262594372034073e-02 5.4713279008865356e-01</leafValues></_>
        <_>
          <internalNodes>
            0 -1 52 -3.2988595194183290e-04</internalNodes>
          <leafValues>
            -7.9309695959091187e-01 8.9433364570140839e-02</leafValues></_>
        <_>
          <internalNodes>
            0 -1 86 9.5896832644939423e-03</internalNodes>
          <leafValues>
            -8.9937180280685425e-02 8.2308894395828247e-01</leafValues></_>
        <_>
          <internalNodes>
            0 -1 194 1.7193425446748734e-04</internalNodes>
          <leafValues>
            1.0819510370492935e-01 -5.2596920728683472e-01</leafValues></_>
        <_>
          <internalNodes>
            0 -1 191 2.2068503312766552e-04</internalNodes>
          <leafValues>
            -1.3095459342002869e-01 2.8520342707633972e-01</leafValues></_>
        <_>
          <internalNodes>
            0 -1 520 -1.3179384404793382e-04</internalNodes>
          <leafValues>
            -3.6542755365371704e-01 9.1313466429710388e-02</leafValues></_>
        <_>
          <internalNodes>
            0 -1 53 -1.5775117790326476e-03</internalNodes>
          <leafValues>
            1.1228121072053909e-01 -3.9250001311302185e-01</leafValues></_>
        <_>
          <internalNodes>
            0 -1 52 2.6563979918137193e-04</internalNodes>
          <leafValues>
            3.8855310529470444e-02 -7.6203393936157227e-01</leafValues></_>
        <_>
          <internalNodes>
            0 -1 50 4.2863038834184408e-04</internalNodes>
          <leafValues>
            -1.3018530607223511e-01 2.5287067890167236e-01</leafValues></_>
        <_>
          <internalNodes>
            0 -1 123 2.7833291096612811e-04</internalNodes>
          <leafValues>
            4.6078078448772430e-02 -7.1246618032455444e-01</leafValues></_>
        <_>
          <internalNodes>
            0 -1 115 1.7379772616550326e-03</internalNodes>
          <leafValues>
            5.6664809584617615e-02 -5.9023725986480713e-01</leafValues></_>
        <_>
          <internalNodes>
            0 -1 500 -2.8522391221486032e-04</internalNodes>
          <leafValues>
            -8.1139385700225830e-01 3.6997359246015549e-02</leafValues></_>
        <_>
          <internalNodes>
            0 -1 382 1.6368398064514622e-05</internalNodes>
          <leafValues>
            -1.9614967703819275e-01 1.7095179855823517e-01</leafValues></_>
        <_>
          <internalNodes>
            0 -1 388 -8.2203070633113384e-05</internalNodes>
          <leafValues>
            2.8792423009872437e-01 -1.0952491313219070e-01</leafValues></_>
        <_>
          <internalNodes>
            0 -1 440 3.4232909092679620e-04</internalNodes>
          <leafValues>
            4.2640615254640579e-02 -8.8842833042144775e-01</leafValues></_>
        <_>
          <internalNodes>
            0 -1 419 -3.6877945531159639e-03</internalNodes>
          <leafValues>
            1.3088934123516083e-01 -2.3024594783782959e-01</leafValues></_>
        <_>
          <internalNodes>
            0 -1 425 -1.3081108045298606e-04</internalNodes>
          <leafValues>
            -4.5303040742874146e-01 7.6325409114360809e-02</leafValues></_>
        <_>
          <internalNodes>
            0 -1 503 -2.8409209335222840e-04</internalNodes>
          <leafValues>
            3.2392275333404541e-01 -1.0984341800212860e-01</leafValues></_>
        <_>
          <internalNodes>
            0 -1 139 -4.4111421448178589e-04</internalNodes>
          <leafValues>
            -3.8761816918849945e-02 7.7031701803207397e-01</leafValues></_>
        <_>
          <internalNodes>
            0 -1 6 3.3518437703605741e-05</internalNodes>
          <leafValues>
            -1.1716788262128830e-01 2.6435276865959167e-01</leafValues></_>
        <_>
          <internalNodes>
            0 -1 545 2.7993947151117027e-04</internalNodes>
          <leafValues>
            8.5836276412010193e-02 -3.9260244369506836e-01</leafValues></_>
        <_>
          <internalNodes>
            0 -1 360 -2.2537635231856257e-04</internalNodes>
          <leafValues>
            2.9107716679573059e-01 -1.2339906394481659e-01</leafValues></_>
        <_>
          <internalNodes>
            0 -1 214 2.5723245926201344e-04</internalNodes>
          <leafValues>
            7.7513419091701508e-02 -4.7870191931724548e-01</leafValues></_>
        <_>
          <internalNodes>
            0 -1 80 2.4884400772862136e-05</internalNodes>
          <leafValues>
            -1.6245321929454803e-01 2.0986065268516541e-01</leafValues></_>
        <_>
          <internalNodes>
            0 -1 561 -2.3369959671981633e-04</internalNodes>
          <leafValues>
            -6.8792253732681274e-01 5.2572000771760941e-02</leafValues></_>
        <_>
          <internalNodes>
            0 -1 507 -2.2105814423412085e-04</internalNodes>
          <leafValues>
            2.7717325091362000e-01 -1.4900656044483185e-01</leafValues></_>
        <_>
          <internalNodes>
            0 -1 429 -3.2162939896807075e-04</internalNodes>
          <leafValues>
            -5.0728738307952881e-01 7.7470459043979645e-02</leafValues></_>
        <_>
          <internalNodes>
            0 -1 33 -1.8472465453669429e-03</internalNodes>
          <leafValues>
            5.5604159832000732e-01 -6.9160655140876770e-02</leafValues></_>
        <_>
          <internalNodes>
            0 -1 133 -1.1043678387068212e-04</internalNodes>
          <leafValues>
            -5.3016740083694458e-01 7.3367722332477570e-02</leafValues></_>
        <_>
          <internalNodes>
            0 -1 514 1.4233773981686682e-05</internalNodes>
          <leafValues>
            1.5407945215702057e-01 -2.3742423951625824e-01</leafValues></_>
        <_>
          <internalNodes>
            0 -1 60 -6.5428595989942551e-03</internalNodes>
          <leafValues>
            3.9515164494514465e-01 -8.9405447244644165e-02</leafValues></_>
        <_>
          <internalNodes>
            0 -1 168 -3.7701400287915021e-05</internalNodes>
          <leafValues>
            2.2620484232902527e-01 -1.5724034607410431e-01</leafValues></_>
        <_>
          <internalNodes>
            0 -1 582 -5.5699254153296351e-04</internalNodes>
          <leafValues>
            -8.2034802436828613e-01 4.8704393208026886e-02</leafValues></_>
        <_>
          <internalNodes>
            0 -1 521 -2.3620512802153826e-03</internalNodes>
          <leafValues>
            3.6675330996513367e-01 -1.0469065606594086e-01</leafValues></_>
        <_>
          <internalNodes>
            0 -1 108 8.1925289123319089e-05</internalNodes>
          <leafValues>
            9.2753753066062927e-02 -3.9602828025817871e-01</leafValues></_>
        <_>
          <internalNodes>
            0 -1 306 8.3058536052703857e-02</internalNodes>
          <leafValues>
            -5.6617941707372665e-02 6.1944699287414551e-01</leafValues></_>
        <_>
          <internalNodes>
            0 -1 231 -2.0463712280616164e-04</internalNodes>
          <leafValues>
            2.5342541933059692e-01 -1.2731181085109711e-01</leafValues></_>
        <_>
          <internalNodes>
            0 -1 384 1.2127636728109792e-04</internalNodes>
          <leafValues>
            7.7884458005428314e-02 -4.3544200062751770e-01</leafValues></_>
        <_>
          <internalNodes>
            0 -1 252 -4.1129966266453266e-03</internalNodes>
          <leafValues>
            5.8972650766372681e-01 -6.1140555888414383e-02</leafValues></_>
        <_>
          <internalNodes>
            0 -1 163 -6.2773615354672074e-05</internalNodes>
          <leafValues>
            2.9988697171211243e-01 -1.1248891800642014e-01</leafValues></_>
        <_>
          <internalNodes>
            0 -1 432 -1.7703219782561064e-03</internalNodes>
          <leafValues>
            -8.9058798551559448e-01 4.1546106338500977e-02</leafValues></_>
        <_>
          <internalNodes>
            0 -1 383 -4.5627000508829951e-04</internalNodes>
          <leafValues>
            3.1935012340545654e-01 -1.0979191213846207e-01</leafValues></_>
        <_>
          <internalNodes>
            0 -1 154 6.8623910192400217e-04</internalNodes>
          <leafValues>
            4.6047046780586243e-02 -7.7629697322845459e-01</leafValues></_>
        <_>
          <internalNodes>
            0 -1 557 -1.0320645742467605e-05</internalNodes>
          <leafValues>
            1.7927701771259308e-01 -1.9164249300956726e-01</leafValues></_>
        <_>
          <internalNodes>
            0 -1 192 1.9187573343515396e-05</internalNodes>
          <leafValues>
            1.1333362013101578e-01 -3.1942740082740784e-01</leafValues></_>
        <_>
          <internalNodes>
            0 -1 431 -1.4637818094342947e-04</internalNodes>
          <leafValues>
            -4.4772255420684814e-01 7.6127387583255768e-02</leafValues></_></weakClassifiers></_>
    <!-- stage 5 -->
    <_>
      <maxWeakCount>65</maxWeakCount>
      <stageThreshold>-4.2163175344467163e-01</stageThreshold>
      <weakClassifiers>
        <_>
          <internalNodes>
            0 -1 506 -2.7256249450147152e-04</internalNodes>
          <leafValues>
            3.5517397522926331e-01 -9.7297298908233643e-01</leafValues></_>
        <_>
          <internalNodes>
            0 -1 466 -2.1201852709054947e-02</internalNodes>
          <leafValues>
            4.7078239917755127e-01 -3.8937687873840332e-02</leafValues></_>
        <_>
          <internalNodes>
            0 -1 553 -1.2075634731445462e-04</internalNodes>
          <leafValues>
            1.5969209372997284e-01 -1.6121648252010345e-01</leafValues></_>
        <_>
          <internalNodes>
            0 -1 555 -1.2879963032901287e-03</internalNodes>
          <leafValues>
            -4.5331391692161560e-01 5.4594866931438446e-02</leafValues></_>
        <_>
          <internalNodes>
            0 -1 480 -1.3733180821873248e-04</internalNodes>
          <leafValues>
            -2.6430025696754456e-01 1.2281381338834763e-01</leafValues></_>
        <_>
          <internalNodes>
            0 -1 316 2.3024165420792997e-04</internalNodes>
          <leafValues>
            -5.0599515438079834e-02 3.2079845666885376e-01</leafValues></_>
        <_>
          <internalNodes>
            0 -1 61 1.1634596157819033e-03</internalNodes>
          <leafValues>
            2.9295571148395538e-02 -5.1794207096099854e-01</leafValues></_>
        <_>
          <internalNodes>
            0 -1 251 4.8837083159014583e-04</internalNodes>
          <leafValues>
            4.5515712350606918e-02 -5.3767019510269165e-01</leafValues></_>
        <_>
          <internalNodes>
            0 -1 226 1.5223618829622865e-03</internalNodes>
          <leafValues>
            4.7335170209407806e-02 -7.0417809486389160e-01</leafValues></_>
        <_>
          <internalNodes>
            0 -1 536 7.9611883847974241e-05</internalNodes>
          <leafValues>
            -1.3626839220523834e-01 2.0590145885944366e-01</leafValues></_>
        <_>
          <internalNodes>
            0 -1 509 6.2751083169132471e-04</internalNodes>
          <leafValues>
            -1.1604665964841843e-01 2.4210478365421295e-01</leafValues></_>
        <_>
          <internalNodes>
            0 -1 481 -1.2568576494231820e-04</internalNodes>
          <leafValues>
            -4.3987318873405457e-01 6.3863836228847504e-02</leafValues></_>
        <_>
          <internalNodes>
            0 -1 459 -9.3510432634502649e-04</internalNodes>
          <leafValues>
            -8.0903846025466919e-01 3.1798776239156723e-02</leafValues></_>
        <_>
          <internalNodes>
            0 -1 369 -4.3862810707651079e-04</internalNodes>
          <leafValues>
            2.8247207403182983e-01 -1.0443115234375000e-01</leafValues></_>
        <_>
          <internalNodes>
            0 -1 344 5.7794160966295749e-05</internalNodes>
          <leafValues>
            -1.7118301987648010e-01 1.8628510832786560e-01</leafValues></_>
        <_>
          <internalNodes>
            0 -1 366 1.8665939569473267e-03</internalNodes>
          <leafValues>
            -9.1692797839641571e-02 3.1956684589385986e-01</leafValues></_>
        <_>
          <internalNodes>
            0 -1 255 8.7089918088167906e-04</internalNodes>
          <leafValues>
            -2.0369014143943787e-01 1.4788416028022766e-01</leafValues></_>
        <_>
          <internalNodes>
            0 -1 95 -3.1435240089194849e-05</internalNodes>
          <leafValues>
            2.0718422532081604e-01 -1.5239956974983215e-01</leafValues></_>
        <_>
          <internalNodes>
            0 -1 393 -1.3315718388184905e-04</internalNodes>
          <leafValues>
            -5.0348490476608276e-01 7.0204764604568481e-02</leafValues></_>
        <_>
          <internalNodes>
            0 -1 378 -3.3891503699123859e-04</internalNodes>
          <leafValues>
            -8.8531780242919922e-01 3.0899837613105774e-02</leafValues></_>
        <_>
          <internalNodes>
            0 -1 387 3.0473730294033885e-04</internalNodes>
          <leafValues>
            -9.7464129328727722e-02 2.9056245088577271e-01</leafValues></_>
        <_>
          <internalNodes>
            0 -1 169 2.6940177194774151e-03</internalNodes>
          <leafValues>
            6.6127933561801910e-02 -4.3553540110588074e-01</leafValues></_>
        <_>
          <internalNodes>
            0 -1 12 2.6844979729503393e-03</internalNodes>
          <leafValues>
            -1.0114502906799316e-01 3.0216872692108154e-01</leafValues></_>
        <_>
          <internalNodes>
            0 -1 405 -5.7448341976851225e-04</internalNodes>
          <leafValues>
            -8.1514489650726318e-01 3.9195038378238678e-02</leafValues></_>
        <_>
          <internalNodes>
            0 -1 294 3.9226654917001724e-03</internalNodes>
          <leafValues>
            -1.1889760196208954e-01 2.6004132628440857e-01</leafValues></_>
        <_>
          <internalNodes>
            0 -1 364 -1.8197405734099448e-04</internalNodes>
          <leafValues>
            2.9908263683319092e-01 -8.9400902390480042e-02</leafValues></_>
        <_>
          <internalNodes>
            0 -1 390 -4.0667928260518238e-05</internalNodes>
          <leafValues>
            -3.0674993991851807e-01 1.0330758243799210e-01</leafValues></_>
        <_>
          <internalNodes>
            0 -1 126 1.6211651382036507e-04</internalNodes>
          <leafValues>
            5.7327851653099060e-02 -5.2464812994003296e-01</leafValues></_>
        <_>
          <internalNodes>
            0 -1 362 -5.1550497300922871e-04</internalNodes>
          <leafValues>
            4.1146394610404968e-01 -7.5766436755657196e-02</leafValues></_>
        <_>
          <internalNodes>
            0 -1 438 -8.4554811473935843e-04</internalNodes>
          <leafValues>
            -6.6206341981887817e-01 5.3628358989953995e-02</leafValues></_>
        <_>
          <internalNodes>
            0 -1 125 -1.7041601240634918e-03</internalNodes>
          <leafValues>
            3.7539276480674744e-01 -8.9221090078353882e-02</leafValues></_>
        <_>
          <internalNodes>
            0 -1 526 -4.2734611779451370e-03</internalNodes>
          <leafValues>
            5.0213629007339478e-01 -5.5603221058845520e-02</leafValues></_>
        <_>
          <internalNodes>
            0 -1 142 2.2506169625557959e-04</internalNodes>
          <leafValues>
            4.9119386821985245e-02 -6.4794313907623291e-01</leafValues></_>
        <_>
          <internalNodes>
            0 -1 188 -3.1741225393489003e-04</internalNodes>
          <leafValues>
            1.8503861129283905e-01 -1.6333055496215820e-01</leafValues></_>
        <_>
          <internalNodes>
            0 -1 376 -2.7346008573658764e-04</internalNodes>
          <leafValues>
            2.2468973696231842e-01 -1.2039737403392792e-01</leafValues></_>
        <_>
          <internalNodes>
            0 -1 182 -4.8617488937452435e-04</internalNodes>
          <leafValues>
            2.5226128101348877e-01 -1.1487701535224915e-01</leafValues></_>
        <_>
          <internalNodes>
            0 -1 110 5.1875403150916100e-03</internalNodes>
          <leafValues>
            -5.1040709018707275e-02 5.9000247716903687e-01</leafValues></_>
        <_>
          <internalNodes>
            0 -1 49 -8.1970874816761352e-06</internalNodes>
          <leafValues>
            1.9119767844676971e-01 -1.5429158508777618e-01</leafValues></_>
        <_>
          <internalNodes>
            0 -1 352 8.4182398859411478e-04</internalNodes>
          <leafValues>
            -7.8424140810966492e-02 3.8967281579971313e-01</leafValues></_>
        <_>
          <internalNodes>
            0 -1 107 -1.4963440480642021e-04</internalNodes>
          <leafValues>
            -5.1633507013320923e-01 6.2832020223140717e-02</leafValues></_>
        <_>
          <internalNodes>
            0 -1 269 2.0143346046097577e-04</internalNodes>
          <leafValues>
            -1.0606925934553146e-01 2.7783343195915222e-01</leafValues></_>
        <_>
          <internalNodes>
            0 -1 534 -1.4887479483149946e-04</internalNodes>
          <leafValues>
            -4.9212887883186340e-01 6.7735388875007629e-02</leafValues></_>
        <_>
          <internalNodes>
            0 -1 44 -7.2523802518844604e-02</internalNodes>
          <leafValues>
            3.5105144977569580e-01 -9.4323039054870605e-02</leafValues></_>
        <_>
          <internalNodes>
            0 -1 229 -1.8329129088670015e-03</internalNodes>
          <leafValues>
            -5.5620588362216949e-02 5.0867021083831787e-01</leafValues></_>
        <_>
          <internalNodes>
            0 -1 116 -3.5949554294347763e-03</internalNodes>
          <leafValues>
            4.5513946563005447e-02 -7.1315318346023560e-01</leafValues></_>
        <_>
          <internalNodes>
            0 -1 152 -3.9790039882063866e-03</internalNodes>
          <leafValues>
            -4.6918373554944992e-02 7.3391789197921753e-01</leafValues></_>
        <_>
          <internalNodes>
            0 -1 73 -1.7289909301325679e-03</internalNodes>
          <leafValues>
            1.8453453481197357e-01 -1.7858372628688812e-01</leafValues></_>
        <_>
          <internalNodes>
            0 -1 65 1.3089430332183838e-01</internalNodes>
          <leafValues>
            -6.3715614378452301e-02 5.5585318803787231e-01</leafValues></_>
        <_>
          <internalNodes>
            0 -1 136 4.5120129361748695e-03</internalNodes>
          <leafValues>
            7.7886655926704407e-02 -4.8844963312149048e-01</leafValues></_>
        <_>
          <internalNodes>
            0 -1 551 -1.1663557961583138e-04</internalNodes>
          <leafValues>
            2.4179920554161072e-01 -1.2779009342193604e-01</leafValues></_>
        <_>
          <internalNodes>
            0 -1 398 1.1377209739293903e-04</internalNodes>
          <leafValues>
            -1.5373714268207550e-01 2.0028953254222870e-01</leafValues></_>
        <_>
          <internalNodes>
            0 -1 399 2.0614062668755651e-04</internalNodes>
          <leafValues>
            5.9925694018602371e-02 -5.2156621217727661e-01</leafValues></_>
        <_>
          <internalNodes>
            0 -1 285 7.0605147629976273e-04</internalNodes>
          <leafValues>
            -9.4427771866321564e-02 3.2199865579605103e-01</leafValues></_>
        <_>
          <internalNodes>
            0 -1 430 8.4817723836749792e-04</internalNodes>
          <leafValues>
            -1.0879397392272949e-01 2.6546233892440796e-01</leafValues></_>
        <_>
          <internalNodes>
            0 -1 148 -6.4705929253250360e-04</internalNodes>
          <leafValues>
            2.6838737726211548e-01 -1.1811682581901550e-01</leafValues></_>
        <_>
          <internalNodes>
            0 -1 498 -1.1336355237290263e-04</internalNodes>
          <leafValues>
            -4.4796046614646912e-01 7.1591228246688843e-02</leafValues></_>
        <_>
          <internalNodes>
            0 -1 455 -2.5545959360897541e-03</internalNodes>
          <leafValues>
            4.6911612153053284e-01 -7.5379669666290283e-02</leafValues></_>
        <_>
          <internalNodes>
            0 -1 373 7.6495669782161713e-04</internalNodes>
          <leafValues>
            7.0469096302986145e-02 -5.4888874292373657e-01</leafValues></_>
        <_>
          <internalNodes>
            0 -1 289 2.2709059703629464e-04</internalNodes>
          <leafValues>
            -1.3185104727745056e-01 2.5300240516662598e-01</leafValues></_>
        <_>
          <internalNodes>
            0 -1 442 9.8815830424427986e-03</internalNodes>
          <leafValues>
            5.7151399552822113e-02 -5.6904226541519165e-01</leafValues></_>
        <_>
          <internalNodes>
            0 -1 195 1.6954856982920319e-04</internalNodes>
          <leafValues>
            5.3884219378232956e-02 -5.6956160068511963e-01</leafValues></_>
        <_>
          <internalNodes>
            0 -1 173 -7.8311713878065348e-04</internalNodes>
          <leafValues>
            2.8298369050025940e-01 -1.1503820866346359e-01</leafValues></_>
        <_>
          <internalNodes>
            0 -1 38 -2.2382889874279499e-03</internalNodes>
          <leafValues>
            3.9768400788307190e-01 -7.2241522371768951e-02</leafValues></_>
        <_>
          <internalNodes>
            0 -1 35 -3.7393788807094097e-03</internalNodes>
          <leafValues>
            -8.6382824182510376e-01 4.1127346456050873e-02</leafValues></_>
        <_>
          <internalNodes>
            0 -1 31 -1.3225682778283954e-04</internalNodes>
          <leafValues>
            1.8041335046291351e-01 -1.7513735592365265e-01</leafValues></_></weakClassifiers></_>
    <!-- stage 6 -->
    <_>
      <maxWeakCount>64</maxWeakCount>
      <stageThreshold>-3.4393554925918579e-01</stageThreshold>
      <weakClassifiers>
        <_>
          <internalNodes>
            0 -1 113 -4.9627672880887985e-02</internalNodes>
          <leafValues>
            -8.6111110448837280e-01 3.5275518894195557e-01</leafValues></_>
        <_>
          <internalNodes>
            0 -1 518 7.5135519728064537e-04</internalNodes>
          <leafValues>
            -6.4112529158592224e-02 3.4298223257064819e-01</leafValues></_>
        <_>
          <internalNodes>
            0 -1 1 -4.4434383511543274e-02</internalNodes>
          <leafValues>
            -3.9765542745590210e-01 6.7166097462177277e-02</leafValues></_>
        <_>
          <internalNodes>
            0 -1 66 -6.8438041489571333e-04</internalNodes>
          <leafValues>
            -3.1589007377624512e-01 7.8907005488872528e-02</leafValues></_>
        <_>
          <internalNodes>
            0 -1 315 -1.9327632617205381e-04</internalNodes>
          <leafValues>
            2.5681418180465698e-01 -1.0537591576576233e-01</leafValues></_>
        <_>
          <internalNodes>
            0 -1 127 -6.3872095779515803e-05</internalNodes>
          <leafValues>
            -2.5791564583778381e-01 9.9188029766082764e-02</leafValues></_>
        <_>
          <internalNodes>
            0 -1 541 -2.9389109840849414e-05</internalNodes>
          <leafValues>
            1.6135652363300323e-01 -1.8944595754146576e-01</leafValues></_>
        <_>
          <internalNodes>
            0 -1 328 2.2175777121447027e-04</internalNodes>
          <leafValues>
            -8.4120094776153564e-02 2.8027066588401794e-01</leafValues></_>
        <_>
          <internalNodes>
            0 -1 243 2.0330891013145447e-02</internalNodes>
          <leafValues>
            5.1421035081148148e-02 -5.8045154809951782e-01</leafValues></_>
        <_>
          <internalNodes>
            0 -1 70 -5.2800616685999557e-05</internalNodes>
          <leafValues>
            -2.3307095468044281e-01 1.0932600498199463e-01</leafValues></_>
        <_>
          <internalNodes>
            0 -1 542 -3.0649872496724129e-03</internalNodes>
          <leafValues>
            3.4967485070228577e-01 -8.6875461041927338e-02</leafValues></_>
        <_>
          <internalNodes>
            0 -1 118 -5.2708614384755492e-04</internalNodes>
          <leafValues>
            -4.6082833409309387e-01 6.4102791249752045e-02</leafValues></_>
        <_>
          <internalNodes>
            0 -1 18 -1.7006401903927326e-03</internalNodes>
          <leafValues>
            -4.0635719895362854e-01 6.0068853199481964e-02</leafValues></_>
        <_>
          <internalNodes>
            0 -1 10 1.5674730530008674e-03</internalNodes>
          <leafValues>
            -7.5530126690864563e-02 3.2320198416709900e-01</leafValues></_>
        <_>
          <internalNodes>
            0 -1 408 -1.8348416779190302e-04</internalNodes>
          <leafValues>
            1.6224507987499237e-01 -1.6585287451744080e-01</leafValues></_>
        <_>
          <internalNodes>
            0 -1 453 -5.3015653975307941e-04</internalNodes>
          <leafValues>
            2.2727574408054352e-01 -1.2271548807621002e-01</leafValues></_>
        <_>
          <internalNodes>
            0 -1 554 2.4895387014112202e-06</internalNodes>
          <leafValues>
            1.5338025987148285e-01 -1.8487715721130371e-01</leafValues></_>
        <_>
          <internalNodes>
            0 -1 204 -1.3901524944230914e-03</internalNodes>
          <leafValues>
            -4.2204251885414124e-01 7.4236974120140076e-02</leafValues></_>
        <_>
          <internalNodes>
            0 -1 16 -4.0747812017798424e-03</internalNodes>
          <leafValues>
            -5.0052690505981445e-01 5.4616890847682953e-02</leafValues></_>
        <_>
          <internalNodes>
            0 -1 23 -2.3377276957035065e-03</internalNodes>
          <leafValues>
            5.4549217224121094e-01 -5.8137897402048111e-02</leafValues></_>
        <_>
          <internalNodes>
            0 -1 569 -1.0374774225056171e-02</internalNodes>
          <leafValues>
            9.7971513867378235e-02 -3.2678291201591492e-01</leafValues></_>
        <_>
          <internalNodes>
            0 -1 212 6.9846268743276596e-03</internalNodes>
          <leafValues>
            1.2019450217485428e-01 -2.6993456482887268e-01</leafValues></_>
        <_>
          <internalNodes>
            0 -1 14 -4.3163012014701962e-04</internalNodes>
          <leafValues>
            -6.9837056100368500e-02 4.9978274106979370e-01</leafValues></_>
        <_>
          <internalNodes>
            0 -1 472 -2.3938939557410777e-04</internalNodes>
          <leafValues>
            4.0565049648284912e-01 -6.9189310073852539e-02</leafValues></_>
        <_>
          <internalNodes>
            0 -1 460 -2.3181503365776734e-06</internalNodes>
          <leafValues>
            -1.7613667249679565e-01 1.6453629732131958e-01</leafValues></_>
        <_>
          <internalNodes>
            0 -1 467 -1.0233621287625283e-04</internalNodes>
          <leafValues>
            3.0006590485572815e-01 -9.8965577781200409e-02</leafValues></_>
        <_>
          <internalNodes>
            0 -1 331 4.2005779687315226e-04</internalNodes>
          <leafValues>
            -1.1916679888963699e-01 2.4280282855033875e-01</leafValues></_>
        <_>
          <internalNodes>
            0 -1 427 -3.9883470162749290e-03</internalNodes>
          <leafValues>
            2.3388591408729553e-01 -1.1749695986509323e-01</leafValues></_>
        <_>
          <internalNodes>
            0 -1 574 2.3899084771983325e-04</internalNodes>
          <leafValues>
            -1.4767576754093170e-01 2.0043317973613739e-01</leafValues></_>
        <_>
          <internalNodes>
            0 -1 340 -1.8074471154250205e-04</internalNodes>
          <leafValues>
            -5.3437995910644531e-01 5.5281706154346466e-02</leafValues></_>
        <_>
          <internalNodes>
            0 -1 492 1.3290380593389273e-04</internalNodes>
          <leafValues>
            5.9797566384077072e-02 -4.7992467880249023e-01</leafValues></_>
        <_>
          <internalNodes>
            0 -1 13 -2.6453793980181217e-03</internalNodes>
          <leafValues>
            -3.0217128992080688e-01 8.7661087512969971e-02</leafValues></_>
        <_>
          <internalNodes>
            0 -1 92 -8.4144172433298081e-05</internalNodes>
          <leafValues>
            1.8141005933284760e-01 -1.5723992884159088e-01</leafValues></_>
        <_>
          <internalNodes>
            0 -1 190 -1.1652098328340799e-04</internalNodes>
          <leafValues>
            -4.4971802830696106e-01 6.4208187162876129e-02</leafValues></_>
        <_>
          <internalNodes>
            0 -1 335 1.0099767241626978e-03</internalNodes>
          <leafValues>
            -7.1266204118728638e-02 4.4832494854927063e-01</leafValues></_>
        <_>
          <internalNodes>
            0 -1 295 -2.4684485048055649e-02</internalNodes>
          <leafValues>
            -6.0599678754806519e-01 5.5804736912250519e-02</leafValues></_>
        <_>
          <internalNodes>
            0 -1 141 -2.1260166249703616e-05</internalNodes>
          <leafValues>
            -2.2845417261123657e-01 1.3528972864151001e-01</leafValues></_>
        <_>
          <internalNodes>
            0 -1 293 7.3503132443875074e-04</internalNodes>
          <leafValues>
            -1.1880675703287125e-01 2.3251385986804962e-01</leafValues></_>
        <_>
          <internalNodes>
            0 -1 397 6.6410761792212725e-04</internalNodes>
          <leafValues>
            -1.0682816058397293e-01 2.6606565713882446e-01</leafValues></_>
        <_>
          <internalNodes>
            0 -1 146 7.9634875874035060e-05</internalNodes>
          <leafValues>
            -1.5878218412399292e-01 1.7641498148441315e-01</leafValues></_>
        <_>
          <internalNodes>
            0 -1 367 4.2583635076880455e-03</internalNodes>
          <leafValues>
            6.9620966911315918e-02 -4.1350319981575012e-01</leafValues></_>
        <_>
          <internalNodes>
            0 -1 263 6.8349065259099007e-03</internalNodes>
          <leafValues>
            -1.2710879743099213e-01 2.2887381911277771e-01</leafValues></_>
        <_>
          <internalNodes>
            0 -1 415 7.3497439734637737e-04</internalNodes>
          <leafValues>
            -8.8254936039447784e-02 3.0797109007835388e-01</leafValues></_>
        <_>
          <internalNodes>
            0 -1 563 1.5017050318419933e-03</internalNodes>
          <leafValues>
            3.3312089741230011e-02 -9.1082727909088135e-01</leafValues></_>
        <_>
          <internalNodes>
            0 -1 234 -5.1966821774840355e-04</internalNodes>
          <leafValues>
            2.6338279247283936e-01 -1.0795132070779800e-01</leafValues></_>
        <_>
          <internalNodes>
            0 -1 143 -8.5392959590535611e-05</internalNodes>
          <leafValues>
            -4.0884765982627869e-01 7.1402750909328461e-02</leafValues></_>
        <_>
          <internalNodes>
            0 -1 531 1.5787556185387075e-04</internalNodes>
          <leafValues>
            -1.3259080052375793e-01 2.2194853425025940e-01</leafValues></_>
        <_>
          <internalNodes>
            0 -1 433 -8.0975901801139116e-04</internalNodes>
          <leafValues>
            -6.4424043893814087e-01 5.1503349095582962e-02</leafValues></_>
        <_>
          <internalNodes>
            0 -1 51 2.6894422262557782e-06</internalNodes>
          <leafValues>
            1.6532003879547119e-01 -1.8183092772960663e-01</leafValues></_>
        <_>
          <internalNodes>
            0 -1 241 -1.4862088486552238e-02</internalNodes>
          <leafValues>
            4.7090962529182434e-02 -6.9076943397521973e-01</leafValues></_>
        <_>
          <internalNodes>
            0 -1 151 -3.9553241804242134e-03</internalNodes>
          <leafValues>
            3.7068483233451843e-01 -8.2583948969841003e-02</leafValues></_>
        <_>
          <internalNodes>
            0 -1 523 3.9658771129325032e-04</internalNodes>
          <leafValues>
            -9.9771790206432343e-02 3.0392891168594360e-01</leafValues></_>
        <_>
          <internalNodes>
            0 -1 220 -3.9851127075962722e-04</internalNodes>
          <leafValues>
            -2.1296405792236328e-01 1.4960342645645142e-01</leafValues></_>
        <_>
          <internalNodes>
            0 -1 29 4.7970630112104118e-04</internalNodes>
          <leafValues>
            8.8767021894454956e-02 -3.6226698756217957e-01</leafValues></_>
        <_>
          <internalNodes>
            0 -1 435 -1.9963068189099431e-04</internalNodes>
          <leafValues>
            -4.0674194693565369e-01 7.3439121246337891e-02</leafValues></_>
        <_>
          <internalNodes>
            0 -1 223 1.4982017455622554e-04</internalNodes>
          <leafValues>
            -1.1957199126482010e-01 2.5102338194847107e-01</leafValues></_>
        <_>
          <internalNodes>
            0 -1 549 -3.0821518157608807e-04</internalNodes>
          <leafValues>
            3.6188548803329468e-01 -8.0178722739219666e-02</leafValues></_>
        <_>
          <internalNodes>
            0 -1 55 -9.5872778911143541e-04</internalNodes>
          <leafValues>
            -4.7214445471763611e-01 6.5044909715652466e-02</leafValues></_>
        <_>
          <internalNodes>
            0 -1 400 1.3869047164916992e-01</internalNodes>
          <leafValues>
            -4.3176904320716858e-02 6.9499570131301880e-01</leafValues></_>
        <_>
          <internalNodes>
            0 -1 407 6.1441014986485243e-04</internalNodes>
          <leafValues>
            1.3937270641326904e-01 -2.4631659686565399e-01</leafValues></_>
        <_>
          <internalNodes>
            0 -1 470 1.1867120862007141e-02</internalNodes>
          <leafValues>
            -6.0229882597923279e-02 4.6160510182380676e-01</leafValues></_>
        <_>
          <internalNodes>
            0 -1 516 -2.5034087229869328e-05</internalNodes>
          <leafValues>
            1.7647118866443634e-01 -1.6977716982364655e-01</leafValues></_>
        <_>
          <internalNodes>
            0 -1 268 -9.8368339240550995e-04</internalNodes>
          <leafValues>
            4.0065109729766846e-01 -8.0764561891555786e-02</leafValues></_>
        <_>
          <internalNodes>
            0 -1 540 -2.9591613565571606e-04</internalNodes>
          <leafValues>
            -2.5024032592773438e-01 1.3585525751113892e-01</leafValues></_></weakClassifiers></_>
    <!-- stage 7 -->
    <_>
      <maxWeakCount>65</maxWeakCount>
      <stageThreshold>-4.4392350316047668e-01</stageThreshold>
      <weakClassifiers>
        <_>
          <internalNodes>
            0 -1 144 9.8625721875578165e-04</internalNodes>
          <leafValues>
            3.5165578126907349e-01 -1.</leafValues></_>
        <_>
          <internalNodes>
            0 -1 572 4.9334985669702291e-04</internalNodes>
          <leafValues>
            -8.0771408975124359e-02 3.2451120018959045e-01</leafValues></_>
        <_>
          <internalNodes>
            0 -1 4 -7.7266234438866377e-04</internalNodes>
          <leafValues>
            -4.3340045958757401e-02 6.9727617502212524e-01</leafValues></_>
        <_>
          <internalNodes>
            0 -1 207 -7.8236442059278488e-03</internalNodes>
          <leafValues>
            4.2424730956554413e-02 -4.8410156369209290e-01</leafValues></_>
        <_>
          <internalNodes>
            0 -1 222 2.7654174715280533e-02</internalNodes>
          <leafValues>
            7.2162345051765442e-02 -4.4701063632965088e-01</leafValues></_>
        <_>
          <internalNodes>
            0 -1 230 -6.7027757177129388e-04</internalNodes>
          <leafValues>
            2.4776333570480347e-01 -1.1985611915588379e-01</leafValues></_>
        <_>
          <internalNodes>
            0 -1 121 1.5214172890409827e-04</internalNodes>
          <leafValues>
            2.9089448973536491e-02 -6.1712211370468140e-01</leafValues></_>
        <_>
          <internalNodes>
            0 -1 469 2.6748015079647303e-04</internalNodes>
          <leafValues>
            -5.0310652703046799e-02 5.3401315212249756e-01</leafValues></_>
        <_>
          <internalNodes>
            0 -1 19 -1.4502260833978653e-02</internalNodes>
          <leafValues>
            -5.0387505441904068e-02 5.5329865217208862e-01</leafValues></_>
        <_>
          <internalNodes>
            0 -1 94 1.4804911334067583e-03</internalNodes>
          <leafValues>
            7.0679046213626862e-02 -5.3990310430526733e-01</leafValues></_>
        <_>
          <internalNodes>
            0 -1 256 -3.7262076511979103e-04</internalNodes>
          <leafValues>
            3.6105129122734070e-01 -8.0340348184108734e-02</leafValues></_>
        <_>
          <internalNodes>
            0 -1 104 -3.4306340385228395e-03</internalNodes>
          <leafValues>
            -3.0866792798042297e-01 9.6485324203968048e-02</leafValues></_>
        <_>
          <internalNodes>
            0 -1 535 -2.5731232017278671e-04</internalNodes>
          <leafValues>
            2.0099152624607086e-01 -1.5092200040817261e-01</leafValues></_>
        <_>
          <internalNodes>
            0 -1 149 -1.6599036753177643e-03</internalNodes>
          <leafValues>
            -5.3632164001464844e-01 6.2447320669889450e-02</leafValues></_>
        <_>
          <internalNodes>
            0 -1 354 -1.8616539891809225e-03</internalNodes>
          <leafValues>
            2.6376613974571228e-01 -1.0758583247661591e-01</leafValues></_>
        <_>
          <internalNodes>
            0 -1 303 1.1166557669639587e-04</internalNodes>
          <leafValues>
            7.5211897492408752e-02 -3.6528214812278748e-01</leafValues></_>
        <_>
          <internalNodes>
            0 -1 474 -1.1477630323497579e-04</internalNodes>
          <leafValues>
            3.0529695749282837e-01 -9.2197820544242859e-02</leafValues></_>
        <_>
          <internalNodes>
            0 -1 26 -3.3702503424137831e-04</internalNodes>
          <leafValues>
            -3.0660495162010193e-01 8.8962092995643616e-02</leafValues></_>
        <_>
          <internalNodes>
            0 -1 504 -9.4683340284973383e-04</internalNodes>
          <leafValues>
            3.8046795129776001e-01 -8.5102349519729614e-02</leafValues></_>
        <_>
          <internalNodes>
            0 -1 28 -2.2365004406310618e-04</internalNodes>
          <leafValues>
            -4.1643536090850830e-01 7.1549393236637115e-02</leafValues></_>
        <_>
          <internalNodes>
            0 -1 111 -1.3988884165883064e-02</internalNodes>
          <leafValues>
            -7.8456693887710571e-01 3.7514206022024155e-02</leafValues></_>
        <_>
          <internalNodes>
            0 -1 351 1.3472502119839191e-02</internalNodes>
          <leafValues>
            -6.3441105186939240e-02 4.9867621064186096e-01</leafValues></_>
        <_>
          <internalNodes>
            0 -1 401 -1.9278501858934760e-03</internalNodes>
          <leafValues>
            -4.5776221156120300e-01 7.2747357189655304e-02</leafValues></_>
        <_>
          <internalNodes>
            0 -1 239 2.7515605324879289e-04</internalNodes>
          <leafValues>
            -1.4607232809066772e-01 1.9440451264381409e-01</leafValues></_>
        <_>
          <internalNodes>
            0 -1 359 -4.0013689431361854e-04</internalNodes>
          <leafValues>
            2.5825899839401245e-01 -1.0616976022720337e-01</leafValues></_>
        <_>
          <internalNodes>
            0 -1 357 -3.4522707574069500e-04</internalNodes>
          <leafValues>
            2.4331524968147278e-01 -1.1253779381513596e-01</leafValues></_>
        <_>
          <internalNodes>
            0 -1 452 -4.1906995465978980e-04</internalNodes>
          <leafValues>
            -2.7700057253241539e-02 9.0814834833145142e-01</leafValues></_>
        <_>
          <internalNodes>
            0 -1 161 -2.5615456252126023e-05</internalNodes>
          <leafValues>
            -2.3446668684482574e-01 1.2864066660404205e-01</leafValues></_>
        <_>
          <internalNodes>
            0 -1 326 -6.4258126076310873e-04</internalNodes>
          <leafValues>
            4.0513455867767334e-01 -7.0476427674293518e-02</leafValues></_>
        <_>
          <internalNodes>
            0 -1 346 -4.3532047420740128e-03</internalNodes>
          <leafValues>
            -3.2051372528076172e-01 8.5876382887363434e-02</leafValues></_>
        <_>
          <internalNodes>
            0 -1 157 5.5694217735435814e-06</internalNodes>
          <leafValues>
            -1.7065437138080597e-01 1.6187538206577301e-01</leafValues></_>
        <_>
          <internalNodes>
            0 -1 486 2.8823281172662973e-04</internalNodes>
          <leafValues>
            1.4908657968044281e-01 -2.2399051487445831e-01</leafValues></_>
        <_>
          <internalNodes>
            0 -1 291 4.5537535334005952e-04</internalNodes>
          <leafValues>
            -9.8384886980056763e-02 2.5987952947616577e-01</leafValues></_>
        <_>
          <internalNodes>
            0 -1 386 -1.8714166944846511e-03</internalNodes>
          <leafValues>
            2.6835143566131592e-01 -9.6128001809120178e-02</leafValues></_>
        <_>
          <internalNodes>
            0 -1 379 -1.5014604432508349e-03</internalNodes>
          <leafValues>
            -2.2988538444042206e-01 1.0771524906158447e-01</leafValues></_>
        <_>
          <internalNodes>
            0 -1 578 -5.7792658481048420e-05</internalNodes>
          <leafValues>
            2.6215294003486633e-01 -9.6321240067481995e-02</leafValues></_>
        <_>
          <internalNodes>
            0 -1 205 7.3008079198189080e-05</internalNodes>
          <leafValues>
            7.7251665294170380e-02 -3.4768536686897278e-01</leafValues></_>
        <_>
          <internalNodes>
            0 -1 280 -9.0003406512551010e-05</internalNodes>
          <leafValues>
            2.6260071992874146e-01 -1.0026768594980240e-01</leafValues></_>
        <_>
          <internalNodes>
            0 -1 145 4.4854816223960370e-05</internalNodes>
          <leafValues>
            8.8475689291954041e-02 -2.9368323087692261e-01</leafValues></_>
        <_>
          <internalNodes>
            0 -1 527 -2.4373671039938927e-03</internalNodes>
          <leafValues>
            -4.8261195421218872e-02 5.2931803464889526e-01</leafValues></_>
        <_>
          <internalNodes>
            0 -1 356 6.1910465592518449e-04</internalNodes>
          <leafValues>
            -1.0063204169273376e-01 2.5992032885551453e-01</leafValues></_>
        <_>
          <internalNodes>
            0 -1 347 6.6494680941104889e-03</internalNodes>
          <leafValues>
            9.6384480595588684e-02 -3.0724412202835083e-01</leafValues></_>
        <_>
          <internalNodes>
            0 -1 493 -5.5989786051213741e-04</internalNodes>
          <leafValues>
            2.6467117667198181e-01 -1.0439112037420273e-01</leafValues></_>
        <_>
          <internalNodes>
            0 -1 179 -5.2386669267434627e-05</internalNodes>
          <leafValues>
            -3.2889002561569214e-01 8.3093240857124329e-02</leafValues></_>
        <_>
          <internalNodes>
            0 -1 358 -1.0440563783049583e-02</internalNodes>
          <leafValues>
            -6.2886381149291992e-01 4.6304166316986084e-02</leafValues></_>
        <_>
          <internalNodes>
            0 -1 473 -3.7126494571566582e-03</internalNodes>
          <leafValues>
            2.2017203271389008e-01 -1.3022704422473907e-01</leafValues></_>
        <_>
          <internalNodes>
            0 -1 250 9.5934758428484201e-04</internalNodes>
          <leafValues>
            5.2756652235984802e-02 -6.0039800405502319e-01</leafValues></_>
        <_>
          <internalNodes>
            0 -1 218 -1.0180016397498548e-04</internalNodes>
          <leafValues>
            2.6272964477539063e-01 -1.1055472493171692e-01</leafValues></_>
        <_>
          <internalNodes>
            0 -1 25 1.8391326302662492e-03</internalNodes>
          <leafValues>
            8.1378452479839325e-02 -3.4780377149581909e-01</leafValues></_>
        <_>
          <internalNodes>
            0 -1 27 -5.4954045481281355e-05</internalNodes>
          <leafValues>
            1.9374361634254456e-01 -1.6516585648059845e-01</leafValues></_>
        <_>
          <internalNodes>
            0 -1 106 1.3635033974424005e-04</internalNodes>
          <leafValues>
            1.0770431905984879e-01 -2.9303753376007080e-01</leafValues></_>
        <_>
          <internalNodes>
            0 -1 135 2.6700296075432561e-05</internalNodes>
          <leafValues>
            -1.8116921186447144e-01 1.9012995064258575e-01</leafValues></_>
        <_>
          <internalNodes>
            0 -1 24 -4.2311232537031174e-03</internalNodes>
          <leafValues>
            -2.0594905316829681e-01 1.4828054606914520e-01</leafValues></_>
        <_>
          <internalNodes>
            0 -1 22 -8.9915301650762558e-03</internalNodes>
          <leafValues>
            6.9168341159820557e-01 -3.7872016429901123e-02</leafValues></_>
        <_>
          <internalNodes>
            0 -1 287 -1.0696701938286424e-03</internalNodes>
          <leafValues>
            3.0860206484794617e-01 -8.3685196936130524e-02</leafValues></_>
        <_>
          <internalNodes>
            0 -1 566 2.6384415832580999e-05</internalNodes>
          <leafValues>
            -1.4782541990280151e-01 1.8174050748348236e-01</leafValues></_>
        <_>
          <internalNodes>
            0 -1 355 2.8942143544554710e-03</internalNodes>
          <leafValues>
            -8.6504496634006500e-02 3.1407171487808228e-01</leafValues></_>
        <_>
          <internalNodes>
            0 -1 587 5.0813169218599796e-04</internalNodes>
          <leafValues>
            -1.0366033017635345e-01 2.6364162564277649e-01</leafValues></_>
        <_>
          <internalNodes>
            0 -1 296 2.8348028659820557e-02</internalNodes>
          <leafValues>
            -9.0413086116313934e-02 3.0627921223640442e-01</leafValues></_>
        <_>
          <internalNodes>
            0 -1 308 -1.5532460529357195e-03</internalNodes>
          <leafValues>
            3.9570727944374084e-01 -7.3760464787483215e-02</leafValues></_>
        <_>
          <internalNodes>
            0 -1 543 -1.2245827820152044e-03</internalNodes>
          <leafValues>
            -5.5198356509208679e-02 5.1072180271148682e-01</leafValues></_>
        <_>
          <internalNodes>
            0 -1 558 3.9242190541699529e-04</internalNodes>
          <leafValues>
            -1.3492144644260406e-01 2.2594001889228821e-01</leafValues></_>
        <_>
          <internalNodes>
            0 -1 505 5.0364085473120213e-03</internalNodes>
          <leafValues>
            7.5119361281394958e-02 -4.4805064797401428e-01</leafValues></_>
        <_>
          <internalNodes>
            0 -1 426 -2.4486447218805552e-03</internalNodes>
          <leafValues>
            3.0057746917009354e-02 -8.8349002599716187e-01</leafValues></_>
        <_>
          <internalNodes>
            0 -1 64 -4.0381379425525665e-02</internalNodes>
          <leafValues>
            -4.6127714216709137e-02 8.0554312467575073e-01</leafValues></_></weakClassifiers></_>
    <!-- stage 8 -->
    <_>
      <maxWeakCount>74</maxWeakCount>
      <stageThreshold>-4.0094953775405884e-01</stageThreshold>
      <weakClassifiers>
        <_>
          <internalNodes>
            0 -1 156 9.9551528692245483e-03</internalNodes>
          <leafValues>
            3.5181429982185364e-01 -9.6825397014617920e-01</leafValues></_>
        <_>
          <internalNodes>
            0 -1 476 2.6189060881733894e-03</internalNodes>
          <leafValues>
            -2.1490175276994705e-02 6.3295942544937134e-01</leafValues></_>
        <_>
          <internalNodes>
            0 -1 464 4.0040481835603714e-03</internalNodes>
          <leafValues>
            1.9355081021785736e-02 -7.0088970661163330e-01</leafValues></_>
        <_>
          <internalNodes>
            0 -1 464 3.9602471515536308e-03</internalNodes>
          <leafValues>
            -9.3128933804109693e-04 7.4975544214248657e-01</leafValues></_>
        <_>
          <internalNodes>
            0 -1 464 3.9543611928820610e-03</internalNodes>
          <leafValues>
            3.7560172495432198e-04 -9.8667836189270020e-01</leafValues></_>
        <_>
          <internalNodes>
            0 -1 464 3.9495569653809071e-03</internalNodes>
          <leafValues>
            -1.8695081234909594e-04 8.3680772781372070e-01</leafValues></_>
        <_>
          <internalNodes>
            0 -1 448 3.5889674909412861e-03</internalNodes>
          <leafValues>
            1.2297007255256176e-02 -5.9599214792251587e-01</leafValues></_>
        <_>
          <internalNodes>
            0 -1 78 -4.1019731725100428e-05</internalNodes>
          <leafValues>
            1.7715191841125488e-01 -1.2858556210994720e-01</leafValues></_>
        <_>
          <internalNodes>
            0 -1 193 1.2977738515473902e-04</internalNodes>
          <leafValues>
            -1.0648273676633835e-01 2.0445260405540466e-01</leafValues></_>
        <_>
          <internalNodes>
            0 -1 508 -4.4508854625746608e-04</internalNodes>
          <leafValues>
            -4.6007272601127625e-01 5.4615326225757599e-02</leafValues></_>
        <_>
          <internalNodes>
            0 -1 40 2.6104427888640203e-05</internalNodes>
          <leafValues>
            -1.5362651646137238e-01 1.4251318573951721e-01</leafValues></_>
        <_>
          <internalNodes>
            0 -1 160 2.9101174324750900e-02</internalNodes>
          <leafValues>
            1.3219026848673820e-02 -7.5805991888046265e-01</leafValues></_>
        <_>
          <internalNodes>
            0 -1 237 -2.0240226876921952e-04</internalNodes>
          <leafValues>
            -4.8206177353858948e-01 5.4625574499368668e-02</leafValues></_>
        <_>
          <internalNodes>
            0 -1 248 1.2796359369531274e-03</internalNodes>
          <leafValues>
            -7.6679036021232605e-02 2.9786425828933716e-01</leafValues></_>
        <_>
          <internalNodes>
            0 -1 20 -1.1959597031818703e-05</internalNodes>
          <leafValues>
            -2.0785638689994812e-01 1.1415850371122360e-01</leafValues></_>
        <_>
          <internalNodes>
            0 -1 496 -5.3723622113466263e-03</internalNodes>
          <leafValues>
            5.0233595073223114e-02 -6.2945860624313354e-01</leafValues></_>
        <_>
          <internalNodes>
            0 -1 395 4.7559710219502449e-03</internalNodes>
          <leafValues>
            -2.9341882094740868e-02 7.8007954359054565e-01</leafValues></_>
        <_>
          <internalNodes>
            0 -1 210 -4.7887105029076338e-04</internalNodes>
          <leafValues>
            2.1678884327411652e-01 -1.0164450109004974e-01</leafValues></_>
        <_>
          <internalNodes>
            0 -1 546 2.3808253899915144e-05</internalNodes>
          <leafValues>
            -1.6271418333053589e-01 1.5402966737747192e-01</leafValues></_>
        <_>
          <internalNodes>
            0 -1 164 3.5185617161914706e-04</internalNodes>
          <leafValues>
            -5.5059112608432770e-02 3.8795271515846252e-01</leafValues></_>
        <_>
          <internalNodes>
            0 -1 274 8.9069753885269165e-03</internalNodes>
          <leafValues>
            3.1770795583724976e-02 -6.6206890344619751e-01</leafValues></_>
        <_>
          <internalNodes>
            0 -1 48 7.6091783121228218e-03</internalNodes>
          <leafValues>
            -5.4486136883497238e-02 4.8426362872123718e-01</leafValues></_>
        <_>
          <internalNodes>
            0 -1 137 5.7698646560311317e-04</internalNodes>
          <leafValues>
            4.0996335446834564e-02 -8.0557680130004883e-01</leafValues></_>
        <_>
          <internalNodes>
            0 -1 547 -5.1068775064777583e-05</internalNodes>
          <leafValues>
            1.4103853702545166e-01 -1.8340297043323517e-01</leafValues></_>
        <_>
          <internalNodes>
            0 -1 258 1.0167544241994619e-03</internalNodes>
          <leafValues>
            -6.3907518982887268e-02 3.6030015349388123e-01</leafValues></_>
        <_>
          <internalNodes>
            0 -1 576 -2.0902598043903708e-04</internalNodes>
          <leafValues>
            -3.8566493988037109e-01 6.6797003149986267e-02</leafValues></_>
        <_>
          <internalNodes>
            0 -1 375 2.7752440655604005e-04</internalNodes>
          <leafValues>
            -8.3286918699741364e-02 3.0151405930519104e-01</leafValues></_>
        <_>
          <internalNodes>
            0 -1 187 5.7099481637123972e-05</internalNodes>
          <leafValues>
            8.6977653205394745e-02 -2.7792882919311523e-01</leafValues></_>
        <_>
          <internalNodes>
            0 -1 297 7.6959503348916769e-04</internalNodes>
          <leafValues>
            -1.0181061923503876e-01 2.3103460669517517e-01</leafValues></_>
        <_>
          <internalNodes>
            0 -1 570 -7.0344656705856323e-04</internalNodes>
          <leafValues>
            -4.5536495745182037e-02 5.7488030195236206e-01</leafValues></_>
        <_>
          <internalNodes>
            0 -1 552 -1.0971834417432547e-03</internalNodes>
          <leafValues>
            1.5400999784469604e-01 -1.7507185041904449e-01</leafValues></_>
        <_>
          <internalNodes>
            0 -1 571 7.2946102591231465e-04</internalNodes>
          <leafValues>
            -1.0128378868103027e-01 2.4934697151184082e-01</leafValues></_>
        <_>
          <internalNodes>
            0 -1 434 -9.6711324295029044e-04</internalNodes>
          <leafValues>
            -2.7752867341041565e-01 1.0884092748165131e-01</leafValues></_>
        <_>
          <internalNodes>
            0 -1 524 -1.5642841754015535e-04</internalNodes>
          <leafValues>
            -3.2877910137176514e-01 8.1511996686458588e-02</leafValues></_>
        <_>
          <internalNodes>
            0 -1 67 -2.3487700673285872e-04</internalNodes>
          <leafValues>
            2.4182651937007904e-01 -1.1087137460708618e-01</leafValues></_>
        <_>
          <internalNodes>
            0 -1 62 -1.5440399874933064e-04</internalNodes>
          <leafValues>
            -3.1623199582099915e-01 8.5374817252159119e-02</leafValues></_>
        <_>
          <internalNodes>
            0 -1 445 1.9137500203214586e-04</internalNodes>
          <leafValues>
            -1.2849789857864380e-01 2.1417246758937836e-01</leafValues></_>
        <_>
          <internalNodes>
            0 -1 487 -3.6362001992529258e-05</internalNodes>
          <leafValues>
            -2.0344673097133636e-01 1.2873640656471252e-01</leafValues></_>
        <_>
          <internalNodes>
            0 -1 522 3.1109317205846310e-05</internalNodes>
          <leafValues>
            -1.4447186887264252e-01 1.7477728426456451e-01</leafValues></_>
        <_>
          <internalNodes>
            0 -1 176 4.0296913357451558e-04</internalNodes>
          <leafValues>
            4.1403748095035553e-02 -7.1053296327590942e-01</leafValues></_>
        <_>
          <internalNodes>
            0 -1 247 -6.6880397498607635e-03</internalNodes>
          <leafValues>
            -3.4639340639114380e-01 6.8590052425861359e-02</leafValues></_>
        <_>
          <internalNodes>
            0 -1 158 -2.3681742604821920e-03</internalNodes>
          <leafValues>
            1.8291102349758148e-01 -1.3796225190162659e-01</leafValues></_>
        <_>
          <internalNodes>
            0 -1 300 -3.6944504245184362e-04</internalNodes>
          <leafValues>
