<?xml version="1.0"?>
<opencv_storage>
<stage2>
  <maxWeakCount>62</maxWeakCount>
  <stageThreshold>-4.2107760906219482e-01</stageThreshold>
  <weakClassifiers>
    <_>
      <internalNodes>
        0 -1 10300 -2.7266965480521321e-04</internalNodes>
      <leafValues>
        5.2763295173645020e-01 1.8900077044963837e-01</leafValues></_>
    <_>
      <internalNodes>
        0 -1 412497 -3.3226236701011658e-02</internalNodes>
      <leafValues>
        2.8460636734962463e-01 -1.1637723445892334e-01</leafValues></_>
    <_>
      <internalNodes>
        0 -1 26916 -5.8700342196971178e-04</internalNodes>
      <leafValues>
        4.8073562979698181e-01 -6.1932515352964401e-02</leafValues></_>
    <_>
      <internalNodes>
        0 -1 341350 -4.7246101312339306e-03</internalNodes>
      <leafValues>
        -1.3048490881919861e-01 2.8641736507415771e-01</leafValues></_>
    <_>
      <internalNodes>
        0 -1 2189931 -1.1500957189127803e-03</internalNodes>
      <leafValues>
        3.1142017245292664e-01 -1.0603035241365433e-01</leafValues></_>
    <_>
      <internalNodes>
        0 -1 2057951 -1.0130883892998099e-03</internalNodes>
      <leafValues>
        4.1720908880233765e-01 -8.4836244583129883e-02</leafValues></_>
    <_>
      <internalNodes>
        0 -1 1844009 -2.5746264145709574e-04</internalNodes>
      <leafValues>
        3.0710142850875854e-01 -8.7103039026260376e-02</leafValues></_>
    <_>
      <internalNodes>
        0 -1 1917105 -4.3620709329843521e-03</internalNodes>
      <leafValues>
        -3.4037342667579651e-01 9.2745997011661530e-02</leafValues></_>
    <_>
      <internalNodes>
        0 -1 363522 3.3183498308062553e-03</internalNodes>
      <leafValues>
        4.3810822069644928e-02 -6.7943179607391357e-01</leafValues></_>
    <_>
      <internalNodes>
        0 -1 2487912 -3.3548705687280744e-05</internalNodes>
      <leafValues>
        1.9279137253761292e-01 -1.4309664070606232e-01</leafValues></_>
    <_>
      <internalNodes>
        0 -1 2803991 -3.8966448046267033e-03</internalNodes>
      <leafValues>
        -5.4047179222106934e-01 5.2614338696002960e-02</leafValues></_>
    <_>
      <internalNodes>
        0 -1 2893569 -3.8649348425678909e-05</internalNodes>
      <leafValues>
        -2.7214822173118591e-01 1.0457362234592438e-01</leafValues></_>
    <_>
      <internalNodes>
        0 -1 2856249 7.9178554005920887e-04</internalNodes>
      <leafValues>
        -6.1876311898231506e-02 5.4163736104965210e-01</leafValues></_>
    <_>
      <internalNodes>
        0 -1 46843 -3.9361468516290188e-03</internalNodes>
      <leafValues>
        -7.1772062778472900e-01 5.0735265016555786e-02</leafValues></_>
    <_>
      <internalNodes>
        0 -1 2885524 4.1054387111216784e-04</internalNodes>
      <leafValues>
        4.5095186680555344e-02 -5.9926998615264893e-01</leafValues></_>
    <_>
      <internalNodes>
        0 -1 2221680 7.5059250229969621e-04</internalNodes>
      <leafValues>
        -1.0397749394178391e-01 2.9045030474662781e-01</leafValues></_>
    <_>
      <internalNodes>
        0 -1 3016769 -3.2010088034439832e-05</internalNodes>
      <leafValues>
        -2.2115898132324219e-01 1.5326404571533203e-01</leafValues></_>
    <_>
      <internalNodes>
        0 -1 2984207 4.0222349343821406e-04</internalNodes>
      <leafValues>
        1.5804024040699005e-01 -1.9748775660991669e-01</leafValues></_>
    <_>
      <internalNodes>
        0 -1 2769001 -4.0982691571116447e-03</internalNodes>
      <leafValues>
        6.3847035169601440e-01 -5.2125822752714157e-02</leafValues></_>
    <_>
      <internalNodes>
        0 -1 1932007 5.9668869653251022e-05</internalNodes>
      <leafValues>
        1.6382806003093719e-01 -2.0493754744529724e-01</leafValues></_>
    <_>
      <internalNodes>
        0 -1 1847978 -4.5497819781303406e-02</internalNodes>
      <leafValues>
        -3.4088709950447083e-01 9.0122930705547333e-02</leafValues></_>
    <_>
      <internalNodes>
        0 -1 2001354 -2.9733730480074883e-04</internalNodes>
      <leafValues>
        3.3236727118492126e-01 -9.2590518295764923e-02</leafValues></_>
    <_>
      <internalNodes>
        0 -1 1929671 3.7544505903497338e-04</internalNodes>
      <leafValues>
        -7.4631616473197937e-02 3.8600194454193115e-01</leafValues></_>
    <_>
      <internalNodes>
        0 -1 18329 1.3519545973394997e-05</internalNodes>
      <leafValues>
        1.5699309110641479e-01 -1.8898716568946838e-01</leafValues></_>
    <_>
      <internalNodes>
        0 -1 2851125 1.9030345356441103e-05</internalNodes>
      <leafValues>
        -1.5664811432361603e-01 1.9832833111286163e-01</leafValues></_>
    <_>
      <internalNodes>
        0 -1 2094523 -2.9090396128594875e-04</internalNodes>
      <leafValues>
        2.1122595667839050e-01 -1.3868273794651031e-01</leafValues></_>
    <_>
      <internalNodes>
        0 -1 3021007 1.0640830732882023e-03</internalNodes>
      <leafValues>
        7.9390004277229309e-02 -3.9703792333602905e-01</leafValues></_>
    <_>
      <internalNodes>
        0 -1 2877590 1.4055862557142973e-03</internalNodes>
      <leafValues>
        1.2786920368671417e-01 -2.3125797510147095e-01</leafValues></_>
    <_>
      <internalNodes>
        0 -1 1554452 1.3777774292975664e-03</internalNodes>
      <leafValues>
        -1.0497327893972397e-01 2.9508394002914429e-01</leafValues></_>
    <_>
      <internalNodes>
        0 -1 2479440 1.1499598622322083e-04</internalNodes>
      <leafValues>
        -9.6730403602123260e-02 3.2819494605064392e-01</leafValues></_>
    <_>
      <internalNodes>
        0 -1 2333006 9.0671214275062084e-04</internalNodes>
      <leafValues>
        -1.0553480684757233e-01 2.7980887889862061e-01</leafValues></_>
    <_>
      <internalNodes>
        0 -1 1931814 3.1118432525545359e-03</internalNodes>
      <leafValues>
        4.6128876507282257e-02 -7.1128642559051514e-01</leafValues></_>
    <_>
      <internalNodes>
        0 -1 1453321 -7.7772000804543495e-04</internalNodes>
      <leafValues>
        -7.3242181539535522e-01 3.7506904453039169e-02</leafValues></_>
    <_>
      <internalNodes>
        0 -1 2486636 8.7662087753415108e-04</internalNodes>
      <leafValues>
        -6.9017164409160614e-02 4.3322664499282837e-01</leafValues></_>
    <_>
      <internalNodes>
        0 -1 2847178 -8.5747189586982131e-05</internalNodes>
      <leafValues>
        -2.6919510960578918e-01 1.1852848529815674e-01</leafValues></_>
    <_>
      <internalNodes>
        0 -1 3011809 6.6396216861903667e-03</internalNodes>
      <leafValues>
        3.2450288534164429e-02 -9.3503803014755249e-01</leafValues></_>
    <_>
      <internalNodes>
        0 -1 2994879 -8.2334247417747974e-04</internalNodes>
      <leafValues>
        -5.3217208385467529e-01 4.4075347483158112e-02</leafValues></_>
    <_>
      <internalNodes>
        0 -1 2544774 4.2740131902974099e-05</internalNodes>
      <leafValues>
        -1.5137493610382080e-01 2.1918208897113800e-01</leafValues></_>
    <_>
      <internalNodes>
        0 -1 2379416 2.1165909129194915e-04</internalNodes>
      <leafValues>
        -1.0097075998783112e-01 2.9527223110198975e-01</leafValues></_>
    <_>
      <internalNodes>
        0 -1 437494 -2.3716851137578487e-03</internalNodes>
      <leafValues>
        4.0938004851341248e-01 -7.4359551072120667e-02</leafValues></_>
    <_>
      <internalNodes>
        0 -1 851282 -5.0201928243041039e-03</internalNodes>
      <leafValues>
        -6.8776178359985352e-01 5.0477176904678345e-02</leafValues></_>
    <_>
      <internalNodes>
        0 -1 1433203 -1.5924945182632655e-04</internalNodes>
      <leafValues>
        2.1612520515918732e-01 -1.4247304201126099e-01</leafValues></_>
    <_>
      <internalNodes>
        0 -1 2963230 -1.2707491987384856e-04</internalNodes>
      <leafValues>
        -4.1195374727249146e-01 6.8383991718292236e-02</leafValues></_>
    <_>
      <internalNodes>
        0 -1 2258820 -2.8904646751470864e-04</internalNodes>
      <leafValues>
        2.3881249129772186e-01 -1.2842251360416412e-01</leafValues></_>
    <_>
      <internalNodes>
        0 -1 1692354 5.9309462085366249e-03</internalNodes>
      <leafValues>
        4.3521691113710403e-02 -6.7223656177520752e-01</leafValues></_>
    <_>
      <internalNodes>
        0 -1 2322036 1.7669293447397649e-04</internalNodes>
      <leafValues>
        -8.6111120879650116e-02 3.7933072447776794e-01</leafValues></_>
    <_>
      <internalNodes>
        0 -1 2203379 -3.2283851760439575e-04</internalNodes>
      <leafValues>
        3.8303524255752563e-02 -8.6973404884338379e-01</leafValues></_>
    <_>
      <internalNodes>
        0 -1 1893119 -2.8240341693162918e-02</internalNodes>
      <leafValues>
        2.6124921441078186e-01 -1.1616241931915283e-01</leafValues></_>
    <_>
      <internalNodes>
        0 -1 1983507 8.1027694977819920e-04</internalNodes>
      <leafValues>
        -1.0584001243114471e-01 3.0713012814521790e-01</leafValues></_>
    <_>
      <internalNodes>
        0 -1 897199 -6.3160257413983345e-03</internalNodes>
      <leafValues>
        -3.9667360484600067e-02 7.5116342306137085e-01</leafValues></_>
    <_>
      <internalNodes>
        0 -1 2991144 9.4145580078475177e-06</internalNodes>
      <leafValues>
        -1.7816293239593506e-01 1.7171025276184082e-01</leafValues></_>
    <_>
      <internalNodes>
        0 -1 2396147 2.2019445896148682e-03</internalNodes>
      <leafValues>
        -1.4236277341842651e-01 2.2921876609325409e-01</leafValues></_>
    <_>
      <internalNodes>
        0 -1 2995403 -4.4978733058087528e-04</internalNodes>
      <leafValues>
        -6.7272341251373291e-01 4.4278994202613831e-02</leafValues></_>
    <_>
      <internalNodes>
        0 -1 2248733 2.4051722139120102e-03</internalNodes>
      <leafValues>
        -8.3920173346996307e-02 3.4246960282325745e-01</leafValues></_>
    <_>
      <internalNodes>
        0 -1 957442 5.3796172142028809e-04</internalNodes>
      <leafValues>
        4.5272991061210632e-02 -6.6201227903366089e-01</leafValues></_>
    <_>
      <internalNodes>
        0 -1 530936 1.6809836961328983e-04</internalNodes>
      <leafValues>
        4.1981205344200134e-02 -5.9501606225967407e-01</leafValues></_>
    <_>
      <internalNodes>
        0 -1 586179 -1.9989423453807831e-03</internalNodes>
      <leafValues>
        2.6240766048431396e-01 -1.1473374813795090e-01</leafValues></_>
    <_>
      <internalNodes>
        0 -1 1986733 -2.6360566262155771e-03</internalNodes>
      <leafValues>
        3.4496906399726868e-01 -8.0703236162662506e-02</leafValues></_>
    <_>
      <internalNodes>
        0 -1 3024517 -8.7660700082778931e-03</internalNodes>
      <leafValues>
        7.3190516233444214e-01 -3.4292999655008316e-02</leafValues></_>
    <_>
      <internalNodes>
        0 -1 460898 5.9710022469516844e-05</internalNodes>
      <leafValues>
        9.2669785022735596e-02 -3.3783835172653198e-01</leafValues></_>
    <_>
      <internalNodes>
        0 -1 73570 1.4934570936020464e-04</internalNodes>
      <leafValues>
        -9.8155751824378967e-02 3.3303350210189819e-01</leafValues></_>
    <_>
      <internalNodes>
        0 -1 1367553 1.8138915766030550e-04</internalNodes>
      <leafValues>
        1.2261849641799927e-01 -2.6874339580535889e-01</leafValues></_></weakClassifiers></stage2>
</opencv_storage>
